#include "NN.h"
#define NumberOf(arg) ((unsigned int) (sizeof (arg) / sizeof (arg [0])))
#define _2_OPTIMIZE B01000000
#define ACTIVATION__PER_LAYER
#define Sigmoid //0
#define Tanh // 1

#include "NeuralNetwork.h"

//fonction d'activation:
byte activation_func[] = {   1,0};

//layers
const unsigned int layers[] = {FLAT_OUTPUT_SIZE,128,NN_OUTPUT_SIZE};
float *output  ;//sorties

float weights[] = {

  0.074738234, -0.18224306, 0.024600087, 0.048203297, 0.08919014, 0.2370308, 0.09637944, 0.06901768, 0.060699854, 0.16433607, -0.032242794, -0.07135691, 0.07944648, 0.081344955, -0.13494532, 0.16413079, -0.17008813, 0.1141866, 0.14300196, -0.17590067, -0.030898722, -0.19705401, 0.14467548, 0.09087601, -0.019859197, -0.12308724, 0.069539994, 0.21139725, 0.15615049, 0.24610499, 0.1546853, 0.058002695, 0.050973687, 0.2183264, 0.10194838, -0.045113098, -0.2174068, 0.16653584, 0.122437745, 0.016190188, -0.13938959, -0.241575, -0.039929558, 0.47443524, -0.39948183, 0.03180737, -0.20709437, 0.10838395, 0.07855993, -0.31448776, -0.120093815, -0.046605967, 0.14103974, -0.019318424, -0.003492749, 0.047096264, -0.28945568, 0.077134944, 0.22189818, -0.019524395, -0.15958808, -0.14137408, 0.27890548, 0.32083046, 0.0076194433, -0.155269, -0.27624068, 0.24849603, 0.49587446, -0.1549569, -0.08762986, -0.008751183, 0.19003037, 0.32523885, 0.12673353, 0.07704376, 0.035235967, -0.03186555, 0.22052231, 0.1466001, -0.17256992, -0.13437709, -0.028975511, 0.35471123, -0.14415364, -0.048749674, -0.34790087, -0.005064849, 0.32568675, -0.032701526, -0.019967318, -0.17979205, 0.20882495, 0.25856835, 0.16155982, -0.04073662, -0.11496472, -0.024848934, 0.14083561, 0.14102869, 0.014308111, 0.1715195, 0.08695758, 0.21589558, 0.08807258, -0.13875432, 0.073679335, 0.010332345, -0.0055024377, 0.047116555, 0.023063602, -0.12069241, 0.16239375, 0.18527502, 0.23992439, 0.016170572, 0.111320876, -0.0933764, 0.2578276, 0.17560863, -0.0064828782, -0.22743045, 0.1148577, 0.06025086, 0.058606386, -0.18536907, -0.06404196, -0.14922038, 0.22077942, 0.011133601, 0.13575423, -0.09122554, -0.25199375, 0.113474876, 0.034187216, -0.11572182, 0.116351955, -0.23930703, 0.1836277, 0.11481751, 0.059781656, -0.20359407, -0.002823693, 0.42687726, -0.06128908, 
  -0.11511644, -0.007069809, 0.10824966, -0.18319364, -0.122153535, -0.005643831, 0.061396245, -0.17896958, -0.14729416, -0.007985817, -0.11953622, 0.071036145, -0.15515578, -0.07020017, -0.20626765, -0.15717289, 0.08698906, -0.14396252, 0.122826844, -0.13826932, -0.20690894, 0.009362871, -0.05659537, 0.0024308844, -0.06731324, -0.01038719, -0.018616842, -0.15375991, -0.018249977, 0.10156133, -0.031067532, 0.12731914, -0.13271654, 0.006718228, -0.16549507, -0.04006211, 0.055509653, 0.07207724, 0.098195896, 0.039922886, -0.03927335, -0.0087689115, -0.09638835, -0.18587238, -0.09934954, -0.12900873, -0.04656979, -0.12731911, -0.07576243, -0.16842166, 0.07019632, -0.08752934, 0.1323193, -0.13313591, 0.09316627, -0.022394871, -0.16922179, -0.15177442, -0.062872015, -0.115804695, 0.02946138, -0.15287253, -0.002366853, -0.18722226, 0.01600107, -0.11916843, -0.05344652, -0.10416655, 0.1364014, -0.12985022, -0.06506084, 0.12088651, -0.088761106, -0.17767987, -0.024201805, -0.09702515, -0.17129964, -0.006113745, -0.14324267, -0.10110952, 0.12983426, -0.06875821, 0.062359795, 0.14110447, 0.08202393, 0.061941694, 0.011168353, 0.07751178, -0.08488559, 0.062375378, -0.059076037, 0.038980547, -0.100744076, -0.011592824, 0.06891488, 0.062125195, 0.034870125, -0.13984986, -0.15917045, 0.03170916, -0.15104264, -0.013076348, 0.06715683, 0.12639683, -0.20053586, -0.006035196, 0.013008865, -0.051537976, -0.11622102, 0.026881732, 0.07583287, -0.0728323, 0.052833613, 0.13985524, 0.12500773, -0.17094395, 0.006799907, -0.1289452, -0.20373581, -0.20386206, 0.055683397, -0.20760821, 0.12797189, -0.0011364727, -0.13627024, 0.06710572, -0.13023664, -0.22202697, 0.097011395, -0.031481132, 0.12368106, 0.051930666, -0.108028606, -0.012412641, -0.12587087, 0.09899848, -0.21254654, -0.060217377, -0.18704951, -0.13885207, -0.000775751, -0.07616644, -0.097918354, -0.1711114, 0.12368534, 
  -0.05292703, 0.22451513, -0.0715771, 0.22250882, 0.15411976, -0.009339215, 0.17037025, 0.22423874, 0.07167977, -0.111497656, 0.07920774, 0.20497566, 0.012684771, 0.11286101, 0.089553624, -0.000113207905, 0.20492905, 0.17766249, -0.034989115, 0.081731185, 0.03651718, 0.06854066, 0.06899388, -0.04243878, -0.11641712, -0.12373866, 0.06492274, 0.1328173, 0.009601948, -0.10444036, 0.024598442, 0.22840503, -0.045296084, 0.06458191, -0.09286684, 0.19120151, 0.08697283, -0.035138443, 0.18520194, 0.2225636, -0.09074737, 0.2318257, 0.07613034, -0.008741779, -0.13196743, -0.015992425, 0.17364138, -0.023019718, 0.085394494, 0.18486698, 0.13513684, -0.12964827, -0.09977105, -0.08345818, 0.028024923, -0.0629978, 0.13384694, -0.12899663, 0.059441257, 0.20272364, 0.039526064, 0.1462702, 0.18378271, -0.042582724, -0.103295945, 0.16347283, -0.11253682, 0.018608307, 0.047300562, 0.004830915, 0.084891, 0.013002305, 0.19690682, 0.03272543, 0.12829378, 0.133902, -0.12381484, -0.10079328, -0.108793996, -0.04124737, 0.00034483708, 0.12853298, -0.030276386, -0.048679456, 0.19677901, -0.027074168, 0.054105766, -0.04632315, 0.08083022, 0.056183826, 0.20968658, 0.20816472, -0.06291805, -0.04717511, 0.168147, 0.036868416, 0.13853163, -0.084854625, 0.20393467, 0.09231665, 0.00033095336, 0.1947031, 0.010845078, -0.12015732, -0.044217177, 0.1790178, 0.051435493, -0.054287508, -0.03342747, 0.1382007, -0.061417725, -0.018418735, -0.10090347, -0.00014826763, 0.13335045, -0.030080073, -0.10238548, -0.04182043, -0.07275312, -0.06688776, 0.036955934, 0.1722638, 0.15626805, -0.105444625, -0.12272143, 0.106660575, 0.10489488, 0.08694361, 0.07307515, 0.19861956, 0.072149456, 0.086748555, 0.12032194, 0.14063515, 0.10602945, -0.050049067, 0.16070431, -0.026041377, -0.05980959, 0.18066137, 0.23318706, 0.18838325, -0.08337126, 0.16221462, 0.12144476, 
  -0.09624326, -0.09425471, -0.13509817, -0.2127325, 0.10476774, 0.11374189, -0.14159304, -0.15002772, 0.07201831, -0.09851047, 0.003658618, -0.12961759, -0.15316287, 0.050312307, -0.046161216, -0.11007148, -0.17273197, 0.052872237, -0.08253236, 0.076674834, -0.16355768, 0.011945331, 0.06112554, 0.087949894, -0.012239827, -0.108592376, -0.13819376, -0.06663537, -0.086216606, -0.007302415, -0.17605942, 0.049630757, -0.069674894, 0.026274618, -0.14581974, 0.105668776, -0.17912696, -0.09548851, -0.04980796, 0.07051537, -0.12357866, -0.026534129, 0.12592432, -0.15205169, -0.14706767, -0.18978603, -0.015693715, -0.19791442, -0.19293703, -0.06449095, -0.16186205, 0.022739796, -0.07660215, 0.078303434, -0.15162663, -0.11938978, 0.1237853, -0.08397897, 0.1074893, -0.11102477, -0.071273394, -0.1484914, -0.15682785, -0.1040276, 0.04616051, 0.062799014, 0.072798826, 0.032360144, -0.19594981, 0.036541197, -0.124115564, 0.028574986, 0.015347524, -0.15260206, 0.11391862, 0.13301013, -0.22070923, -0.061640434, 0.08395498, 0.09373222, -0.18085967, 0.12942776, -0.17664209, 0.095984675, -0.045801077, 0.12239571, 0.05919882, -0.1896597, -0.0052283406, -0.20294939, -0.17536929, -0.17829019, 0.06498624, -0.14536625, 0.04601381, -0.058764216, -0.12327504, -0.0027567234, 0.13810097, 0.11438678, 0.03325007, 0.10535061, 0.061953917, -0.14347483, 0.026568402, -0.002077628, 0.13585703, 0.06696956, -0.012526913, -0.18129869, 0.013786233, -0.0059207557, 0.043598264, -0.2095269, -0.09096, -0.16819328, 0.12293728, 0.009359735, 0.10065476, -0.2103293, -0.07680102, 0.06500639, -0.1367989, 0.13934477, -0.027608467, 0.13296355, 0.07395752, 0.12974587, 0.03242372, 0.13172835, -0.093158945, -0.12522827, 0.064752065, -0.047539562, 0.03292764, -0.13720173, 0.06845074, -0.09146809, -0.06506887, -0.12203601, -0.0166898, -0.0676286, 0.05006282, -0.072409235, -0.059625197, 
  -0.012612329, 0.15839428, -0.011005842, -0.1132714, -0.14278397, -0.28120175, 0.06725797, 0.00021900638, -0.08743309, -0.30069602, -0.06965074, -0.073758125, -0.27678502, -0.10948686, 0.1936545, 0.068249926, 0.1692381, -0.14039539, -0.03270687, 0.18179631, 0.15331505, 0.06544167, 0.020438759, -0.039983816, -0.14121108, -0.122266255, -0.06026776, 0.016599733, -0.02963982, -0.31023237, 0.04146967, -0.05807281, -0.12792777, 0.008913318, -0.28353724, 0.027037406, 0.13118324, -0.27902815, -0.27349916, 0.09324894, 0.15376876, 0.3838252, -0.030873222, -0.23872018, 0.15086585, -0.019149423, 0.16709827, 0.017951787, -0.19757922, 0.3123238, 0.15006684, 0.21908681, -0.045283712, -0.070625454, 0.10412479, -0.016286433, 0.28533518, 0.031945758, -0.1610093, 0.16409674, -0.014010151, 0.11148833, -0.23278314, -0.28853482, -0.017247261, 0.14832191, 0.33923987, -0.37127128, -0.4027695, -0.04195366, 0.00306916, 0.15614934, -0.009456861, -0.24879609, 0.058532633, 0.14477341, -0.062197857, -0.115831845, -0.28446904, -0.2555519, -0.036686424, 0.3146397, -0.13356778, -0.39258006, 0.20828778, 0.037661318, 0.21190766, -0.010448383, -0.42206898, 0.28689784, 0.03963077, -0.00088784005, 0.084377415, 0.05060391, -0.075590126, 0.15560094, 0.1791852, 0.028049659, -0.123615995, -0.17886409, 0.018575069, -0.12036822, 0.05429085, -0.23314771, -0.28178966, -0.22004434, -0.04882392, -0.05796572, -0.19150424, -0.26349726, 0.13453138, -0.015985178, -0.10667291, -0.08504776, -0.11708648, -0.09028219, 0.19158715, -0.047826014, -0.27339742, -0.18238635, 0.0011309722, 0.06238422, 0.041281555, -0.36500606, -0.16643107, 0.026401037, -0.0860443, 0.17784154, -0.044888046, -0.20630544, 0.13805746, -0.016223663, 0.12293764, -0.19550464, -0.21120405, -0.016753133, 0.19732915, 0.23490173, -0.25338918, -0.21472663, -0.08029572, -0.023628933, 0.23423336, -0.32833716, 0.005494645, 
  0.038838517, 0.103409074, -0.027151747, -0.16349329, -0.072432585, -0.050122954, 0.0092258565, -0.075695686, -0.02012626, 0.038201857, -0.14417513, 0.028566014, -0.027206859, -0.17855117, -0.020279119, 0.03255527, -0.010807284, -0.09160139, -0.19314215, 0.10761373, -0.18080258, 0.04788323, -0.07072323, -0.1768022, -0.08869785, -0.02364617, 0.021521628, -0.056719325, 0.13403727, 0.010627474, 0.14190759, -0.057932816, -0.13722947, 0.1394895, -0.10614523, -0.052193627, 0.07957817, 0.068932936, -0.08446709, 0.0014462961, 0.1415273, -0.10315926, -0.0020824035, -0.059685186, 0.087804504, -0.17345561, 0.048888996, -0.09732987, 0.14864121, -0.16796492, 0.020012744, 0.03099076, -0.04111578, -0.16431145, -0.04712223, -0.19710453, 0.14693812, -0.12075387, 0.025532793, 0.14070828, -0.17293972, -0.16155775, 0.12250544, -0.10215425, 0.054606453, -0.035490174, -0.07388829, 0.100263804, -0.06251523, 0.023617284, -0.18240604, -0.20782456, 0.11830643, -0.07780714, -0.103939176, -0.029417835, -0.18860838, -0.02219428, 0.13867047, 0.09459613, 0.043496486, -0.07231222, -0.1785328, 0.14401624, 0.10370434, 0.04839121, -0.0076384847, -0.07960065, -0.054420162, -0.18696623, -0.002493517, -0.030940413, 0.06840972, -0.19566558, -0.09248252, 0.059675913, -0.1419731, -0.11613087, -0.19247328, 0.093364246, 0.06619386, -0.0024204252, -0.18217431, 0.06954817, -0.20930852, -0.116196394, -0.15932497, -0.16254582, -0.06427063, -0.17292528, 0.062634945, -0.21227977, -0.031614076, -0.19177178, 0.13480881, 0.046612978, 0.013465096, -0.09052181, -0.06917558, -0.16740628, 0.12476141, 0.032668196, -0.17952241, 0.11161027, -0.16720563, -0.20005344, 0.06189437, -0.106673345, -0.02107246, 0.08002027, -0.1193968, -0.11933683, 0.112506375, -0.015520179, -0.108078755, -0.18206672, -0.21032797, -0.0074192854, 0.1488159, -0.16575477, -0.1679932, -0.08581357, 0.12691085, 0.107368305, -0.15705627, 
  0.068245985, -0.13619448, -0.08515271, 0.15210806, 0.01662281, 0.085382506, -0.103469744, 0.10230591, 0.19591767, -0.037534352, -0.05934039, -0.0815852, 0.2110088, -0.12287536, 0.18817246, -0.029056488, 0.14318113, -0.121680416, 0.19718523, 0.18353455, -0.14477569, 0.04835717, -0.07029623, 0.029167786, -0.03263442, 0.051673837, 0.14129904, 0.11553685, -0.018625505, 0.06809142, -0.037053462, 0.12892541, -0.09624014, 0.18328206, 0.18721926, 0.12676688, 0.17577808, -0.026984785, 0.1441581, 0.003697329, 0.1800477, 0.07528898, -0.024475668, -0.13447808, -0.14521657, 0.13884872, -0.032822076, 0.046207942, -0.14440931, -0.14195302, 0.1875212, 0.15922089, -0.012673319, 0.12562384, 0.10837732, 0.1010208, -0.008693778, 0.09949581, -0.07882528, 0.11557368, -0.04768464, 0.042668153, -0.09200771, 0.17100157, -0.09717938, 0.05413411, 0.00050638284, 0.1396458, 0.0922673, 0.09651429, -0.093296364, 0.14488383, 0.12138494, 0.16630962, -0.055259068, -0.15059732, -0.0142397145, 0.21968754, -0.038517408, 0.051528096, 0.15422535, -0.07120319, -0.09537016, 0.005777211, 0.16628824, -0.037895374, 0.20140179, -0.060683593, -0.12604134, -0.1413652, -0.07023168, 0.10928808, -0.09018, -0.11778465, 0.13341089, -0.079250656, -0.026750406, -0.046494275, 0.104789816, 0.19739299, -0.08856438, 0.06460808, 0.10508404, 0.2218929, 0.17426544, -0.05057682, 0.018791806, 0.046729177, 0.09599827, -0.14223206, 0.03348229, 0.077188924, 0.18711203, 0.061056964, 0.0048770644, -0.021126563, -0.122838534, 0.17908007, 0.16714078, 0.21187234, 0.14260422, -0.032745667, 0.053335253, 0.1945242, 0.12426227, 0.032256864, 0.18975203, -0.1184238, -0.082709976, 0.11108004, -0.045611873, -0.1408442, -0.029547468, 0.19192846, -0.063684046, -0.064822115, -0.012136304, 0.08125041, 0.15351519, 0.12750827, 0.21701999, 0.009283134, 0.19671305, 0.16126032, -0.038005363, 
  0.051817518, -0.14790733, -0.020777827, -0.07405207, 0.18295044, 0.10915549, -0.063251205, -0.11708098, -0.107926965, 0.19650906, -0.116238624, -0.12311488, -0.1207605, -0.05385845, 0.35952303, 0.016551137, -0.12518848, -0.024145866, -0.15228657, 0.19801675, 0.08963306, 0.04099076, 0.046396587, 0.008903472, -0.21974234, -0.12947471, -0.12125597, 0.07258652, 0.26201272, 0.00910398, 0.0926609, -0.014005714, 0.006501236, 0.12291523, 0.089503966, 0.16042843, -0.39662352, 0.17093027, 0.19062096, 0.09528307, -0.006632292, -0.14012893, 0.11010683, 0.09920054, 0.055011436, -0.116702996, -0.15266918, 0.2870319, -0.2035166, -0.26639616, -0.10123035, -0.20591632, -0.018206473, -0.036774557, -0.20658067, 0.10026779, -0.31868452, 0.13402909, -0.106841005, -0.19448486, 0.042856112, -0.18652254, 0.16968125, -0.19076952, -0.08502109, -0.13547702, -0.10729703, 0.012589577, 0.099209934, 0.115409434, 0.04665485, -0.09019792, 0.15929994, -0.08159418, 0.010796011, -0.007477553, -0.16228457, 0.17395286, -0.050273277, -0.046246037, -0.0049285116, 0.11896916, 0.14957054, -0.1772615, -0.24825212, 0.025179515, -0.064802855, 0.2504876, -0.09828006, -0.07991622, -0.026122995, -0.12133585, 0.21532574, -0.099755935, -0.13075294, -0.039145, -0.0342984, 0.42791918, -0.075900085, 0.054541416, -0.013609268, -0.10637445, 0.22499867, -0.30573115, -0.2889951, 0.0007715836, -0.115367614, 0.3670179, -0.038240843, -0.1569106, 0.06859913, -0.11232925, 0.34343246, -0.23308216, -0.12462034, -0.098307185, 0.029581387, 0.03285145, -0.24820687, -0.19731079, -0.043408725, 0.14998215, 0.2528306, -0.25374317, -0.35495627, 0.1869121, 0.25278407, 0.27476373, -0.27123204, -0.032673296, 0.0071509015, 0.10099307, 0.47741362, -0.007403988, -0.16209222, 0.017436547, 0.053756032, 0.2799584, -0.017573427, -0.4890502, 0.016974458, -0.15289553, 0.1918508, -0.03443815, -0.4295335, 
  -0.12167629, 0.2045814, 0.06324711, 0.1759884, 0.10159142, -0.040214863, 0.06585481, 0.23711152, 0.1808233, 0.030592015, 0.050041433, 0.22934735, 0.016456556, -0.06724627, 0.09294526, 0.015115518, 0.102807954, 0.10986712, 0.061271682, -0.040901955, 0.0028690398, 0.17222756, -0.09642406, -0.111222476, -0.04154547, 0.06700971, 0.16185497, -0.1145667, -0.05922784, -0.011149378, 0.069500834, 0.13408071, 0.12477846, 0.009467856, 0.067590214, -0.06669126, 0.15955034, 0.1823576, 0.19424728, -0.092387885, 0.14694981, 0.008967785, 0.049043242, 0.23604648, 0.15172334, 0.14353299, 0.22124268, 0.08965114, 0.080381475, -0.056353427, 0.121297136, 0.23719992, -0.020694641, 0.106026866, 0.10177366, -0.03830623, -0.09505238, 0.022551635, -0.1042881, 0.15231949, 0.11675161, 0.07413344, 0.21871908, 0.22047156, 0.19905819, -0.021312945, 0.23747787, 0.04663794, 0.05781059, 0.15419069, 0.03702203, -0.06714912, -0.021287236, -0.080368325, -0.099775694, 0.18182072, 0.081674375, 0.14367336, -0.09240848, -0.02473142, -0.060068514, -0.0684441, -0.08892328, 0.12048112, 0.1101586, 0.1363804, 0.22603746, -0.04210117, 0.041903015, -0.03798055, -0.10712449, 0.21471764, 0.03851291, 0.041613124, 0.028200762, -0.05128322, -0.059616305, 0.1525612, 0.040739696, -0.07551065, 0.08372539, 0.09135175, 0.20027287, -0.053025197, -0.00012843615, -0.07967168, -0.030405946, 0.11996823, -0.10310198, -0.06576451, -0.07912877, 0.06331984, 0.19279097, 0.1371963, -0.030192886, -0.02983679, 0.015529684, 0.2304867, 0.10257686, 0.13952534, 0.05142209, 0.17491901, 0.1321067, -0.057173014, 0.055352196, 0.07285849, 0.042750824, -0.040270194, 0.17556715, 0.2217774, 0.06386138, -0.112645485, -0.046884116, 0.07884872, 0.096416615, -0.070990615, 0.22985908, -0.00491548, 0.116058685, 0.13212454, -0.016823845, 0.11075425, 0.025755983, 0.23078394, 0.19145516, 
  0.13274242, 0.22276728, 0.07344508, 0.08451017, 0.20514455, -0.12678719, -0.030284982, -0.051187336, -0.17225237, 0.19487698, 0.02322626, 0.039524212, 0.1725712, 0.08322507, 0.15115826, -0.16384438, -0.028476067, 0.06613757, 0.16088381, -0.0056543094, 0.07685672, 0.0065399185, 0.019234313, 0.15130149, -0.11931976, 0.11952211, 0.028879827, -0.18254024, -0.02260743, -0.1371484, -0.029934118, 0.14491783, -0.19620591, -0.03975732, -0.34160936, 0.08844358, 0.23434708, -0.012756038, -0.24600208, 0.011699938, 0.0771335, 0.3305199, -0.15454654, -0.14916724, 0.1739234, -0.1280015, 0.37680238, -0.15435407, 0.1936778, 0.007924352, -0.01213845, 0.27489135, -0.18649453, -0.002536712, 0.12944262, 0.08284331, 0.46892667, -0.13219234, 0.23619917, 0.051208604, 0.05931088, 0.09577951, -0.17984371, -0.028136576, 0.13964903, 0.07182392, 0.19835493, -0.32692862, 0.1636763, -0.011679168, 0.03791194, 0.32871112, -0.18185338, 0.08628748, 0.06578809, 0.019391404, 0.038279444, -0.44001117, 0.061995536, -0.15905167, 0.03858939, 0.44307232, -0.30903995, 0.09259514, 0.022447456, 0.0333625, 0.1192666, -0.30719584, -0.033112284, -0.17255291, 0.10243373, 0.130643, -0.07100914, -0.11867276, -0.077389196, 0.11666354, 0.23040554, -0.13967444, 0.1640851, -0.04541384, -0.033711232, 0.13069175, -0.10478202, -0.10477186, -0.03493603, -0.21947592, 0.054015543, -0.18994851, 0.11470748, -0.3777509, 0.18962817, 0.01961636, -0.2335875, -0.15496387, -0.24138042, 0.083338074, 0.08150328, 0.12702486, 0.0868294, -0.18494707, -0.04008485, 0.100448, -0.14395176, -0.08832947, -0.21082915, 0.07649073, 0.15798543, 0.0014087618, -0.13133264, -0.2717075, -0.107025996, -0.17544277, 0.005597827, -0.17444536, -0.07124416, 0.04834533, 0.12202764, 0.049910832, -0.097223945, -0.115412146, 0.024887515, -0.059826035, -0.015428186, -0.12761156, 0.07562151, 
  0.04470652, 0.1753533, -0.10533777, -0.14931813, 0.13611074, -0.15645699, -0.16789222, -0.084094875, 0.07289802, 0.1783486, -0.04340248, -0.14199036, -0.17569634, -0.0138322795, 0.1397564, -0.053785324, -0.14596482, -0.009355793, -0.16366957, -0.097368844, -0.06740293, -0.07396076, -0.052768257, 0.008114876, 0.14103264, 0.01626135, -0.060244195, -0.06837308, 0.08138043, 0.022615956, -0.12145105, 0.004871679, -0.15058444, -0.15182415, -0.18293464, 0.04922115, -0.1434081, 0.042322733, -0.093657754, -0.03573066, 0.07686442, -0.14556025, -0.002320308, 0.007328425, 0.006241335, -0.15372568, -0.1570728, 0.16497862, 0.15775274, -0.05838521, 0.004615306, 0.012636377, -0.15442728, -0.17677101, -0.08353101, -0.084165506, -0.1730056, 0.12451006, 0.1741885, -0.012653183, -0.15647656, -0.1541647, 0.14049931, -0.1478934, -0.023777235, 0.109482385, 0.012221204, -0.08902113, 0.05452421, 0.07291239, -0.17299548, -0.011788435, 0.008139859, 0.08570495, 0.030285714, -0.053898256, 0.16086872, 0.10890641, 0.0062540644, -0.040063806, -0.13077503, 0.13513272, -0.081200846, 0.04374239, -0.04266808, -0.19883396, -0.07052823, 0.03914808, -0.06415917, 0.022816854, 0.037295584, 0.071110636, -0.012706209, 0.03530082, 0.01888261, 0.09946746, -0.17494045, -0.17356558, -0.069789246, -0.026640503, -0.052029904, -0.08730111, 0.018469702, -0.07476225, 0.0018201395, -0.0061014323, -0.18356834, 0.15429889, -0.02612962, -0.15753302, -0.09627658, -0.15307307, -0.18986659, 0.1562068, 0.11941342, -0.08855946, -0.18675283, -0.18513837, -0.01618467, 0.10416026, -0.15008405, -0.0066755093, -0.04327072, 0.16013873, -0.115728766, -0.17526047, 0.12788886, 0.06341924, 0.09089559, 0.075409986, -0.1137768, -0.04946595, 0.11614506, 0.17426394, 0.13861324, -0.07105487, 0.06778383, -0.042728554, -0.060949907, -0.1371556, -0.15925184, 0.17576395, 0.025022883, 0.08163396, -0.040825624, 
  0.17952459, -0.1310454, -0.029553302, -0.04515991, 0.11060277, -0.006578632, 0.19765453, -0.08572578, 0.2743294, 0.39573738, 0.10248765, 0.03614328, 0.09570159, 0.06738386, -0.11691022, 0.14290847, 0.023978451, 0.03952427, 0.19228894, -0.38153556, 0.10009097, 0.08743526, -0.16294815, -0.08088748, 0.25147936, -0.012497748, 0.051704038, 0.008664367, -0.17151941, 0.2673058, 0.1690018, -0.08948713, 0.074854255, 0.17205879, 0.091365315, 0.19973704, -0.22716494, 0.167551, 0.09927339, -0.14202505, -0.082562305, -0.13967827, -0.18620297, 0.28563735, -0.16164744, 0.102312975, -0.012514521, 0.056107167, -0.025885172, -0.015625732, 0.03545412, 0.0072613345, 0.23515962, -0.008601725, -0.020290507, -0.17542888, -0.0773376, 0.17387326, -0.006150514, 0.13567929, 0.15199728, -0.25488782, 0.13011535, 0.33274543, 0.2613756, 0.012679189, -0.21232156, 0.17696485, 0.18750784, -0.13777053, -0.10841812, -0.10518985, 0.0970818, -0.06018945, 0.03347246, -0.104206584, -0.21760091, -0.10637371, -0.03841247, 0.13101502, 0.06720192, -0.053261746, 0.045232743, 0.026135197, 0.12923679, -0.17723419, -0.27822608, 0.0003666919, 0.16060387, 0.20836508, -0.16842423, -0.31066275, 0.11347746, 0.26684764, 0.10441866, -0.22264698, -0.11434086, -0.0031467632, 0.14291745, 0.3596061, 0.07265909, -0.03984608, -0.22507054, 0.2719073, 0.3760685, 0.122695535, -0.004756454, 0.04770838, 0.20737219, 0.36650914, -0.083842814, -0.15458411, 0.11660302, 0.10772624, 0.20301054, 0.13855687, 4.9114256e-05, -0.22758678, 0.24033506, 0.3228355, 0.06042289, -0.05496954, -0.01441088, 0.26529288, 0.28083894, -0.15156853, -0.059827447, -0.12829757, 0.20279902, 0.2656252, -0.13356592, -0.13289098, -0.20907441, 0.14605032, -0.09923369, -0.03172848, -0.18793204, -0.2915174, 0.25398308, 0.09357194, 0.036237366, 0.07808734, -0.05824402, 0.20123076, 0.40395987, 
  0.2094069, 0.1298296, -0.12787366, -0.04323067, 0.034904823, -0.08117368, -0.023510322, 0.16237232, 0.17986076, -0.1429185, 0.056834117, 0.18772271, 0.23059765, 0.18879496, 0.07122638, 0.07508587, -0.032798734, 0.13571353, 0.057474937, -0.018483838, -0.014946111, -0.014744489, -0.052794997, 0.1043362, 0.06964623, 0.12891959, -0.026650406, 0.11007838, 0.18310784, -0.14850067, 0.07326223, 0.14609885, 0.16066946, 0.10684457, 0.095224805, 0.042197283, 0.22338997, -0.10904192, -0.008906889, -0.115171626, -0.06165903, -0.049683474, 0.1116044, -0.11490552, -0.068731084, 0.00037007857, -0.10360466, 0.15935414, -0.105515614, -0.19059134, 0.16001281, 0.208994, -0.039568618, -0.002525315, -0.009108411, 0.0768943, 0.13408142, 0.09941831, 0.036850017, 0.06519633, -0.053506814, 0.07491783, -0.12517303, -0.078843355, 0.12910375, 0.131593, 0.00062491884, -0.050249584, 0.14897063, -0.14592561, -0.081893474, 0.048390474, -0.08689135, -0.10940714, 0.04881481, 0.04122746, 0.13731639, 0.12233893, -0.046946928, 0.11666536, -0.14167102, 0.11361355, -0.063272215, 0.003068297, 0.10308287, -0.094909154, -0.04466251, 0.12563573, -0.044096068, 0.116240375, 0.016889546, -0.013430215, 0.07530501, -0.05566052, 0.015560912, 0.09874874, -0.027640006, -0.15452032, 0.028850192, 0.19190806, 0.1678003, -0.07118966, 0.10075069, 0.07011556, 0.081750356, 0.13673542, 0.2022779, 0.20098086, -0.045815673, 0.070458695, -0.11782319, 0.18319368, -0.07043873, 0.119646326, -0.14250337, -0.021192262, 0.15305743, 0.055016566, -0.022121435, 0.020005442, 0.052576516, 0.11837321, -0.12636594, 0.086763956, 0.06595288, -0.041947998, -0.0764145, 0.07091205, 0.14323735, 0.12243371, 0.1768693, -0.041327063, 0.06183419, -0.07350131, 0.04041548, 0.20868528, 0.18971442, 0.18275902, 0.0039846255, -0.09868882, -0.12378961, 0.12734343, -0.013776266, 0.18632591, -0.095943466, 
  -0.15276363, 0.04933009, 0.059591252, 0.0035322637, -0.110861085, -0.15636599, 0.03375959, -0.16289158, -0.08521235, -0.09648682, -0.124956384, 0.21167496, -0.29103857, -0.1534364, 0.17447983, 0.07455643, 0.0875562, -0.08346388, 0.0006505208, 0.3006312, -0.10151453, -0.06863044, 0.0710258, -0.085005976, -0.17273492, 0.27826497, -0.08195367, 0.11380365, 0.13054955, -0.28977194, -0.10230442, 0.2841237, -0.21417046, -0.018479962, -0.37379837, 0.013976082, 0.21815813, -0.06133984, -0.044576723, -0.09521595, 0.07657813, 0.109923206, 0.028873196, -0.031575926, 0.1272591, 0.059495836, 0.34938508, 0.18897213, -0.033953197, 0.19183344, -0.12280533, 0.2517704, -0.22911164, -0.0776437, -0.038489897, 0.0699663, 0.20423856, -0.21115908, 0.044108026, 0.04006041, 0.10428399, 0.31980827, -0.31702885, -0.1614961, -0.24295664, 0.098154254, 0.10569276, -0.06035436, -0.3976953, -0.055966306, 0.023308758, 0.12449057, -0.31442183, -0.32755083, -0.06522963, 0.16195437, 0.16915655, 0.01021438, -0.0713093, -0.19364838, 0.047781892, 0.25611418, -0.008987562, -0.3697572, 0.18230051, 0.031128898, 0.04679694, 0.026053801, -0.24769214, 0.25014958, -0.054287273, 0.1714243, -0.08643555, -0.25828508, 0.14844638, -0.047993496, 0.035476286, 0.19479415, -0.2919097, 0.006009002, 0.11008017, 0.0033913222, -0.058523886, -0.17580523, -0.092688456, -0.05455787, 0.019503403, -0.11883996, -0.1545675, -0.08738848, -0.09560776, 0.0828424, -0.032756235, -0.2376258, -0.20146264, 0.029705632, -0.1307353, 0.060057014, -0.3088087, -0.33722913, 0.07636811, 0.054270506, 0.060589638, -0.11360365, -0.11106989, 0.019022057, -0.11764648, 0.15184432, -0.25036648, -0.062266245, -0.04258632, 0.038923606, 0.28330782, -0.27164364, -0.177582, 0.11032199, -0.12316526, 0.31053814, -0.27218887, -0.2992707, 0.0055220313, -0.0793375, 0.16704586, -0.34962204, -0.15973507, 
  -0.27726752, 0.00192733, 0.018974677, -0.34623566, -0.23173583, -0.13133585, 0.11082833, 0.06364032, -0.093505435, -0.003653226, -0.10016274, -0.19694477, 0.082877815, -0.096449524, -0.023975225, 0.044488356, -0.0030968601, -0.27102348, -0.17447181, -0.1644533, 0.061225574, -0.062042207, 0.066165894, 0.13424726, 0.005952811, 0.15565911, 0.09018172, -0.02456178, -0.1865242, -0.22009782, -0.03134031, -0.013366431, -0.23569301, -0.080520384, -0.24603407, -0.017984442, 0.31000936, -0.32863316, -0.06857311, -0.028743323, 0.026808282, 0.34093916, -0.024239594, -0.2139309, 0.28006974, -0.04489719, 0.31248966, -0.24437378, 0.06333092, 0.078900315, 0.16523787, 0.10398902, -0.010824569, 0.05519592, 0.06646201, -0.1357544, 0.40159425, -0.08751209, 0.13460262, 0.16755453, 0.20951302, 0.1005256, -0.13334374, -0.09651366, 0.15677342, -0.021305412, 0.18347408, -0.150495, -0.13536964, 0.018555518, 0.13541019, 0.0096111065, -0.20221908, -0.28955176, -0.07967845, 0.038096353, 0.10098898, -0.15044075, 0.0047994903, -0.050331015, 0.060703814, 0.036083348, -0.3423395, -0.013186441, 0.057071354, 0.041106522, 0.21601339, -0.27706212, 0.0256316, 0.16334742, 0.106449366, -0.0984417, -0.42713213, 0.25153765, -0.05877144, -0.08962057, 0.08952113, -0.3649714, -0.011717267, 0.1318294, 0.027592052, 0.073866725, -0.27485484, 0.1507804, 0.1445895, -0.061661996, 0.041012265, -0.16601574, 0.19366103, 0.027737211, 0.023929134, 0.058469143, -0.1582889, 0.21717523, 0.106478676, 0.014740329, -0.18658848, -0.3194617, 0.14503874, -0.028699828, -0.111644916, 0.019557605, -0.11655913, 0.11205721, 0.094855905, 0.07758535, 0.012709661, -0.037356164, 0.061547827, 0.018374773, 0.013493257, -0.046325617, -0.17516781, -0.0358204, 0.21081777, -0.090189405, 0.049546503, -0.2739681, -0.03930297, 0.41640428, -0.011553847, 0.15397751, -0.119531095, 0.043941796, 0.16589563, 
  0.014948491, 0.11362534, 0.035993308, 0.19312254, 0.05808483, 0.0020360437, -0.11053718, 0.115309514, 0.16854244, -0.14255133, 0.15807499, -0.060877036, 0.11735821, -0.08650009, 0.0487976, 0.21176633, -0.15470955, -0.089324355, 0.16743658, 0.08996405, 0.20164762, -0.07476152, -0.060706563, -0.0884998, -0.10564515, 0.21961218, -0.024873476, 0.21071732, 0.10069977, -0.15952602, 0.1552363, 0.03603769, -0.09711473, -0.048939306, -0.16952349, 0.053110115, -0.08988084, -0.14072716, 0.031163367, 0.13598935, 0.14974576, -0.08139679, -0.067087665, 0.13677193, 0.17817216, 0.03580572, -0.12865368, -0.08115732, 0.15974857, -0.135366, -0.09858065, 0.047138453, 0.06778189, -0.13133109, 0.07103011, 0.16431518, -0.112924606, 0.055278126, 0.019323248, -0.017888641, -0.077165395, -0.049561433, 0.097612396, 0.0702523, 0.15852773, 0.07147201, 0.1423874, 0.12366757, 0.045608234, 0.18150626, -0.0077231824, -0.12923358, 0.10593154, -0.07543146, -0.109410204, 0.053087242, 0.11996878, 0.10144114, -0.007063154, -0.1268241, -0.084776476, 0.07795855, 0.16979824, 0.1549255, 0.06410548, -0.13123204, 0.053755205, -0.074798, 0.008678066, 0.11338282, -0.12930517, -0.012751328, -0.10648388, 0.15979509, 0.080320366, 0.10408666, -0.04605077, 0.034675546, 0.118374705, 0.009632955, 0.05858737, -0.062246863, 0.15891601, 0.17342333, -0.02893673, 0.09812129, -0.041651342, 0.080088064, 0.1326947, 0.0376034, 0.07090002, -0.10559929, 0.11657493, 0.016617317, 0.014926969, 0.04662458, 0.06546328, -0.0010006259, -0.011692811, -0.018600898, -0.0012856111, 0.11982163, 0.091794275, 0.10795003, -0.13267204, -0.047666114, -0.042072453, 0.17846319, -0.07693854, 0.06325764, 0.14086056, -0.12948087, 0.0854921, 0.15760593, -0.12690073, 0.06760047, -0.058102734, 0.03291255, -0.026890269, 0.07646161, -0.10891852, 0.023217328, -0.11817698, 0.06501546, 0.031420108, 
  0.24943508, -0.16374812, 0.102464415, 0.14781581, 0.30657938, 0.13346785, 0.15294786, -0.045940492, 0.17693326, 0.2593845, 0.11361811, -0.15599795, 0.2960599, 0.13796256, -0.05888275, 0.103674844, 0.09749511, 0.24509303, 0.111419246, -0.26523548, -0.008234985, 0.13753274, -0.14341864, -0.079396665, -0.10070689, -0.12680045, 0.11590795, 0.0052341647, 0.11644148, -0.07425096, 0.103099994, -0.05804657, 0.033445317, 0.09943909, 0.3042238, 0.07144629, -0.057807997, -0.008449506, 0.25131926, 0.19115914, -0.08445009, -0.08019, -0.03711155, 0.36649814, -0.15968676, -0.024918031, -0.23777689, -0.16284588, 0.26997998, -0.30732483, -0.13085179, -0.028620727, 0.13746281, -0.025824595, -0.32703817, 0.19106555, -0.29440185, 0.098794535, 0.15456243, -0.28036383, -0.16037434, -0.07170018, 0.11278468, 0.22821414, -0.14268278, -0.13880481, -0.079528615, 0.19904476, 0.28650832, -0.13936421, -0.05373478, -0.083277814, -0.03569237, 0.25813472, 0.20422216, -0.008567186, 0.1514938, -0.11957922, 0.23961397, -0.11293026, -0.2886059, -0.11122244, 0.05080344, 0.046096265, -0.33999893, -0.0026895413, -0.14162655, 0.0852133, 0.27892938, -0.1800538, -0.16128874, 0.22343627, 0.19859493, 0.033442765, 0.114433326, -0.20313232, 0.21499, 0.12330755, -0.18052648, 0.055942856, 0.13443692, -0.060972106, 0.030099954, -0.15396142, 0.12722753, 0.07843582, -0.20112154, 0.2621879, 0.027242837, 0.1361637, 0.15013137, -0.14227955, 0.23099929, -0.09085368, -0.24594086, 0.0373779, 0.19119035, -0.03140149, -0.033460703, -0.21477401, -0.20375744, -0.062126063, 0.2289674, 0.24581492, -0.018985122, -0.07661933, 0.0056914645, 0.12761414, 0.03974112, 0.1594604, 0.040740635, -0.005810835, 0.03435007, 0.091996916, -0.020490255, -0.059623763, -0.019370006, -0.12555577, 0.29496822, 0.091480136, 0.06507026, 0.16750509, 0.091533944, 0.0087394845, 0.1049721, 
  -0.006051651, -0.12688348, -0.23188007, -0.098149434, -0.07327271, -0.07840866, 0.08573011, -0.283133, -0.036442917, -0.09982161, -0.026289225, 0.17493875, -0.27626154, 0.12638314, 0.37305304, -0.023529924, 0.16298124, 0.05902578, -0.16262342, 0.37320656, -0.094176255, -0.12513492, 0.12779826, 0.017833266, 0.33034593, 0.06527497, -0.06842114, 0.09570264, 0.11024985, 0.06975022, -0.2009942, -0.055242043, 0.026837686, -0.017108623, 0.29276922, -0.09776682, 0.014649896, 0.11469204, -0.16199058, 0.052501503, -0.041891493, 0.019543357, 0.21951458, -0.111131206, 0.005679563, 0.12733103, 0.04636148, 0.2036116, -0.116919346, 0.039905492, -0.087680794, -0.35491377, 0.17574188, -0.0774406, -0.16379714, 0.032897983, -0.24171917, 0.0246366, -0.3453651, 0.2540381, 0.08330722, -0.21862207, 0.16058737, -0.25359, 0.13645864, -0.08991341, -0.10912809, 0.3416633, 0.0649628, 0.17182569, 0.10446258, -0.13320616, 0.3847519, -0.10615738, 0.19752742, 0.024537716, -0.2911552, 0.28361762, 0.037503116, 0.19633372, -0.11571237, -0.0177506, 0.31046802, -0.056834918, -0.12876932, -0.074255176, -0.060908422, 0.3605809, -0.12840043, -0.06380273, 0.0054482096, -0.09884341, 0.23471655, -0.17439601, -0.050807822, 0.10273041, 0.076684296, 0.41792572, -0.26736718, -0.16698697, 0.16623056, 0.12516075, 0.25579208, -0.16156419, -0.049091965, 0.08492428, -0.29695615, -0.05289634, -0.19021524, 0.012448078, -0.08407322, -0.007871397, 0.26468408, -0.08577909, -0.17067505, -0.01922652, -0.009530487, 0.18480842, -0.16174449, -0.16623309, -0.05733132, 0.032685433, 0.21787862, -0.23092867, -0.15264288, 0.017362796, 0.034882724, 0.052508593, -0.06966781, -0.06914225, 0.11214972, 0.21054785, 0.28494877, -0.08963965, -0.03701087, -0.04526039, 0.03209879, 0.39648384, 0.018342724, -0.19948342, -0.060568914, -0.021028975, 0.29916152, -0.08651743, -0.09791006, 
  0.041140746, -0.13368723, -0.13915199, 0.13095023, 0.008715344, -0.10609487, -0.19155893, -0.079410955, -0.1215041, -0.19440289, -0.11311508, -0.11252182, -0.139592, -0.013954479, -0.099650875, -0.22890201, -0.0805507, -0.20447063, 0.06941338, -0.16521855, 0.022510247, -0.19380167, -0.12112034, -0.03142963, -0.2675761, -0.17941216, 0.049546685, 0.0835342, -0.024539212, -0.16360468, 0.08547542, 0.034773257, -0.1681911, -0.016562702, -0.1828241, 0.060286842, 0.11348644, 0.077432886, -0.17031616, -0.07935501, 0.13004248, -0.17737618, -0.013334886, 0.054391067, -0.20558478, 0.13553126, -0.06460878, 0.03744175, 0.010494691, -0.030529631, -0.028739534, -0.04277512, 0.09156962, -0.21773008, -0.07408552, -0.11237107, 0.0859337, -0.21045414, -0.0010979291, 0.0134869525, 0.22050081, 0.009933177, -0.13615067, -0.17856835, 0.005000323, -0.029652148, 0.07983678, 0.04136756, -0.00046795304, -0.16207464, 0.019236095, -0.20751087, -0.2019865, -0.017675513, 0.051380068, 0.024516787, -0.14688179, 0.09994295, -0.20716853, 0.14892662, -0.077249035, 0.040059082, -0.15651624, -0.15955983, 0.018808663, -0.24551861, 0.1779367, -0.16627882, -0.010257642, 0.13244751, 0.056800596, -0.041621245, 0.09213789, -0.1601243, 0.032168224, 0.0845097, 0.067129195, -0.12286449, -0.13131204, 0.0662575, 0.0016323761, -0.12791461, 0.032979295, 0.038548302, -0.30829373, 0.10150618, -0.19313957, 0.14902693, -0.18022045, 0.00849377, -0.043491375, -0.25146925, 0.14092003, -0.116886154, 0.041645467, 0.14229392, -0.27447554, -0.12596928, -0.064045906, 0.13106504, -0.041831203, -0.23355125, -0.019474419, 0.001972625, 0.15237604, -0.002930444, -0.17517881, -0.1615639, -0.0324027, -0.1474603, -0.108828135, -0.068044454, -0.048867837, -0.014967706, -0.2529102, 0.027078927, 0.1384816, -0.02082355, 0.013646293, 0.00079694635, 0.047007497, -0.057633087, 0.096206665, 0.06424197, -0.105321124, 
  0.0018612039, -0.20595019, -0.12286687, -0.13404562, -0.06504918, -0.21035942, -0.12017883, -0.023009924, -0.11416711, 0.06336183, -0.02922519, 0.08766958, -0.1417569, -0.026530068, -0.21891055, -0.21169779, -0.057364143, 0.024042906, -0.12852241, -0.089155264, -0.14862414, 0.08097979, -0.15056545, -0.10497848, -0.049212385, 0.032109965, 0.11922091, 0.023584487, -0.05485193, -0.08821373, 0.017678844, 0.018327435, 0.08977109, -0.11171212, 0.031177428, -0.061315324, -0.09026994, 0.08166922, -0.07451241, -0.06374926, -0.1719272, -0.14587976, -0.2095787, -0.15380691, -0.08049691, -0.1596531, 0.08300568, -0.18951061, -0.07263781, -0.09505969, 0.09455599, 0.11934053, 0.10455947, -0.116724804, 0.017855603, -0.086283475, -0.18424012, -0.120942965, -0.2168431, -0.06596186, -0.16326751, 0.11913995, -0.05413897, -0.20793825, -0.17236292, -0.14586714, -0.043588653, -0.035934944, -0.08750862, -0.084003955, -0.15880422, 0.038820203, 0.10656644, 0.072113246, 0.01162967, -0.096132725, -0.1259252, 0.007815237, -0.08207345, 0.0015154846, 0.10504839, -0.043518096, -0.087168634, 0.044098023, 0.080353215, -0.16129768, -0.121091105, 0.033146355, -0.096120045, 0.11922307, -0.06031908, 0.0709657, -0.21585302, 0.06295385, -0.20118877, 0.009869646, 0.1262001, -0.016466599, 0.04563149, -0.07739792, 0.08905198, -0.053231932, -0.0931965, 0.041216042, -0.18031062, 0.07147833, 0.011916351, -0.1376585, -0.029507285, 0.077913776, 0.09438319, 0.13117528, 0.10212231, -0.075933866, 0.05509833, -0.033607922, -0.21332285, -0.08590367, 0.10842479, -0.046634667, 0.122419044, -0.03761203, -0.1762232, -0.20082271, -0.20881252, 0.12318915, -0.22479442, -0.06263505, -0.08351636, -0.14296369, 0.10224189, -0.01622186, -0.021572078, -0.12997335, -0.03248079, 0.07612568, -0.17569311, -0.19699642, 0.12658674, -0.14078525, -0.09315936, -0.061984126, 0.13447537, -0.0123854065, -0.20240352, 
  0.014683791, 0.31733987, 0.26297635, 0.2616843, 0.3647234, 0.16508529, 0.25483653, 0.1103846, 0.07743764, 0.9474308, 0.09854681, 0.18899974, -0.00091912586, 0.08562267, -0.18070456, 0.16433215, 0.13506678, 0.2731095, 0.18403198, -0.18275237, 0.15902753, 0.2375543, 0.10611364, 0.06285955, 0.00036436104, 0.096576355, 0.18681452, -0.12224522, -0.08291558, 0.008194484, 0.15354794, -0.15205655, -0.017969662, 0.18788858, -0.067671575, -0.096674, 0.08508585, -0.11172738, 0.14919695, 0.01956888, -0.21572521, 0.0010687573, -0.08097026, 0.34559885, -0.22909576, -0.09975957, -0.09356662, -0.15851699, 0.37489873, -0.22470371, 0.009837522, 0.010290986, -0.13813831, 0.36951983, -0.034404952, -0.13081428, 0.14247088, 0.03523551, 0.3366175, -0.39679518, -0.21839662, 0.12749165, -0.08588313, 0.1262072, -0.3012163, -0.25620425, 0.20809643, -0.38468045, 0.23234442, -0.31716588, 0.039181106, 0.045595437, -0.22793975, 0.065809675, 0.023965932, -0.13557056, -0.06860224, -0.38085425, 0.040773902, 0.042052343, -0.07192769, 0.033699844, 0.055936728, 0.017934307, -0.37890363, 0.0039252467, -0.10136928, -0.021679904, -0.039490104, -0.055190567, -0.18287902, 0.044453617, 0.1681423, 0.059282802, -0.16826206, -0.15526806, 0.14001782, 0.104302615, -0.10751011, -0.09066823, 0.043326844, 0.03796826, 0.087933905, -0.12892497, 0.07363602, 0.023706121, 0.103412375, -0.05208543, -0.06040173, -0.35246152, 0.19617154, -0.06377023, 0.117554866, 0.018226217, -0.1801162, -0.14822184, 0.07310305, 0.07176336, -0.0037066864, -0.38857302, 0.04164082, 0.09130952, 0.2335116, -0.1515326, -0.18341622, -0.11964748, 0.27687323, 0.2296395, -0.24223372, -0.29336435, -0.1081363, 0.052829947, 0.23504342, 0.04283856, -0.24942055, -0.00033985288, 0.030758943, -0.00066600763, -0.20035276, -0.075682975, 0.16409832, 0.094925165, 0.2884209, 0.11959205, -0.103383936, 
  -0.04902969, 0.033265144, 0.14862268, 0.19448698, 0.26679918, 0.26294002, 0.048400026, 0.15808144, 0.12951633, 0.2336784, -0.12037575, 0.103780605, 0.17196655, 0.1526548, -0.51728606, -0.11396384, -0.23536573, 0.27628064, 0.26378047, -0.43555787, -0.07384585, 0.14830574, -0.042226452, 0.21870519, 0.040762067, -0.123159066, 0.007837587, -0.14584754, 0.014102751, 0.088642806, 0.11865481, 0.062472776, 0.0013632337, 0.026538143, -0.09269728, 0.05748166, -0.31510806, -0.23654336, 0.09929305, -0.15398458, -0.10286449, -0.052001566, -0.26753485, 0.3556086, -0.08274999, -0.23965223, -0.1197338, -0.22371735, 0.36574677, -0.30956686, 0.10389927, -0.06701803, -0.0027099263, 0.17872903, -0.13143875, 0.07636423, -0.0985128, -0.10852779, 0.28985476, 0.042249553, -0.10229498, -0.06661464, -0.08420396, 0.30582482, -0.09514202, -0.054663133, -0.022203201, -0.04335384, 0.32896024, -0.25578728, 0.032550737, 0.18470009, -0.04058826, 0.1210144, 0.05612811, -0.21674004, 0.20478348, -0.15673958, 0.17901516, -0.12947223, 0.0073517053, 0.0661265, -0.1343307, 0.2737814, -0.14097849, -0.21246566, -0.070077665, -0.262607, 0.21304777, 0.01383006, 0.016806992, -0.0778828, -0.16295741, 0.15608545, -0.1304659, 0.10603138, 0.0015717247, -0.06255645, 0.08211911, 0.26700854, -0.20577091, -0.048132375, -0.01936972, 0.34462002, 0.089755066, 0.0680042, -0.0042450884, 0.0019348379, 0.36400986, 0.03982132, 0.15899585, 0.0528484, -0.055372946, 0.057691645, 0.118930615, -0.1141115, 0.049013637, -0.0187149, 0.20052345, -0.03424448, 0.10879534, -0.19217233, 0.1443747, 0.23676257, 0.09962309, -0.0894851, -0.0110118035, -0.013051026, 0.026706854, -0.1920756, 0.02470292, 0.1343403, -0.052166283, 0.2757657, -0.05939389, -0.0013416129, -0.11446636, -0.24056338, 0.21472156, 0.06470742, -0.15492365, -0.13794388, 0.18338922, -0.014982539, 0.27220434, 
  -0.09339124, 0.13866723, 0.18523735, 0.013010983, -0.04508723, 0.03910373, -0.08596923, 0.0026934894, 0.07771586, -0.06554384, -0.030843921, -0.1446145, 0.034479085, 0.0057837632, -0.14834625, 0.1337689, -0.13502556, 0.118129045, 0.1397045, -0.12840472, 0.1695398, 0.1736131, 0.09299801, 0.02328841, 0.023452003, 0.19581313, 0.09855127, 0.0017284448, 0.14052981, 0.10156131, 0.10754343, -0.06837075, -0.14545298, -0.016599705, 0.03348063, -0.07814503, 0.060084946, 0.1597676, 0.05707266, -0.085955255, -0.0039878758, -0.065654136, 0.19059132, -0.087073654, -0.0050078663, 0.17384703, 0.04617169, 0.08264661, 0.042207636, 0.06279655, -0.008175812, 0.09577164, 0.022564981, -0.14336377, 0.0076710237, 0.15330967, 0.20682564, -0.01694894, 0.13666719, 0.046235736, -0.004868137, -0.10030269, 0.1490631, -0.19147266, -0.12788562, -0.13877434, 0.102680385, -0.0664458, 0.122288644, 0.010414501, 0.14751364, -0.053203955, 0.20358513, -0.013276532, 0.15728013, -0.11955452, 0.009633442, 0.09004207, 0.14039524, -0.08206564, -0.105171375, 0.16924429, -0.071904704, -0.10459189, 0.09139293, 0.07763483, -0.08452779, -0.04505809, 0.10709319, 0.04069291, -0.04534662, 0.08494281, -0.13215217, 0.11639074, -0.13482374, -0.007452441, -0.15448609, 0.10683997, -0.10466619, -0.080562845, 0.17659763, 0.17560329, -0.05143401, 0.17448053, -0.12431373, -0.091577135, -0.12644145, 0.1223599, 0.014989293, 0.08927749, 0.18017945, -0.1273566, 0.15592864, 0.06316849, -0.05359765, -0.14089607, -0.10357358, -0.07780389, -0.007339481, 0.1178685, 0.17091934, -0.094476216, -0.12298296, -0.014474313, 0.00013196727, 0.16026032, 0.089621864, -0.045387417, -0.04901843, 0.17328899, 0.025395876, 0.12336331, 0.0756254, -0.1483002, -0.1342823, 0.117185734, -0.16178411, -0.024862474, 0.12730809, 0.08099175, 0.0017245492, -0.03880016, 0.089759, 0.13705997, 0.018951707, 
  0.14337878, -0.27514708, 0.059600465, -0.12144493, -0.13536322, -0.0940772, -0.24946135, -0.14033075, -0.19374222, -0.31146252, -0.1717153, 0.029174149, 0.10274651, -0.14097951, 0.0116890455, -0.15055037, 0.10909214, -0.0047318363, 0.043902945, -0.10861474, 0.08303179, -0.22946201, 0.0060416316, 0.061536606, -0.1497498, -0.18453117, -0.121915676, 0.02175934, -0.070489, -0.04001495, -0.1095667, -0.122976966, 0.25900653, 0.2372225, 0.086904734, 0.06882301, -0.18422377, -0.093060546, 0.13917065, 0.20859993, 0.03749523, -0.27514, 0.011912375, -0.01495503, 0.08739424, -0.10543316, -0.37377802, 0.13322294, -0.19228819, -0.14831585, 0.082501665, -0.2831369, 0.30280855, -0.2693082, -0.024438253, -0.080806695, -0.39485577, 0.020097438, 0.028410366, 0.09754017, -0.11665445, -0.14502835, 0.1619717, -0.1753255, -0.11852964, 0.04934742, -0.28687403, 0.23967542, -0.114973255, -0.06773896, -0.054301754, -0.33848807, 0.124585964, -0.13714655, 0.120815106, 0.10550226, 0.02492573, 0.38599014, 0.0069079, 0.05082768, -0.02181249, -0.31125158, 0.35960612, -0.11409929, 0.113238186, -0.03437281, -0.2442875, 0.1767684, 0.1410778, -0.006015188, -0.09778269, -0.17245987, 0.2512869, 0.06016169, 0.16497606, -0.028585225, -0.026293183, 0.1440901, 0.05949829, -0.016918825, 0.13366717, -0.02826074, 0.15226254, -0.14750405, -0.17553449, 0.106498264, 0.04469579, -0.04401167, 0.1300169, 0.29327196, 0.016725723, -0.05861667, -0.043022405, 0.05556797, 0.2441987, -0.0905104, -0.0068466747, 0.010146246, -0.1148453, 0.24156407, -0.14332302, -0.024800401, -0.0575711, 0.107167356, -0.057618577, -0.06478721, -0.3006107, 0.034357462, 0.029072216, 0.16494933, 0.03208939, 0.070672646, 0.018207518, 0.16265456, 0.060170557, 0.19173136, -0.15679635, 0.07451548, 0.2335809, -0.026958484, 0.06687074, 0.010899179, 0.0098787835, 0.110262625, -0.10231593, 
  0.03379696, 0.19964132, 0.17309652, 0.112922914, 0.014160936, 0.16040702, -0.020398214, 0.12423317, 0.060421433, 0.1680536, -0.01572883, -0.041483495, 0.13565503, 0.21997544, -0.39154404, -0.08266474, -0.028315734, 0.1673627, 0.18705933, -0.4519322, 0.02583303, -0.0798276, -0.050417356, 0.059137166, -0.122233994, -0.044244617, 0.2282808, -0.11867203, -0.211721, -0.14526984, -0.15883154, -0.082273826, 0.078060724, -0.054261714, -0.03887559, -0.11093632, -0.15788853, -0.038483873, -0.012654071, -0.014104686, -0.08747981, 0.008486194, -0.1951813, 0.07217323, -0.10027676, -0.008256592, -0.15120696, -0.1572449, 0.3428189, -0.107698284, -0.1018606, -0.052934527, -0.25285402, 0.31233436, 0.1310543, 0.1339722, -0.078078136, -0.029348487, 0.15274678, 0.12353652, -0.22818278, 0.04564865, -0.13032818, 0.41715276, -0.16716151, -0.0600567, -0.10765857, -0.08619512, 0.3402577, -0.18255453, -0.025192987, -0.06450508, -0.041634414, 0.26446667, -0.05649133, -0.16257735, 0.1471599, -0.25739124, 0.059515968, 0.18080905, -0.1727469, -0.1448048, -0.20748721, 0.19308656, -0.11366338, -0.06917136, -0.104422815, 0.041548546, 0.35212094, -0.2757553, -0.04835051, 0.12789401, 0.016992409, 0.075559705, -0.1499774, 0.00028335478, -0.069869034, -0.14990118, 0.1741646, -0.016113564, -0.1063101, 0.11382457, -0.101606905, 0.30881512, 0.27495125, -0.038171116, 0.16080602, -0.18103664, 0.18642311, -0.0077443314, 0.018675297, 0.18579352, -0.034255862, 0.2933625, -0.15169801, 0.19678406, -0.043021616, -0.18305452, 0.26056185, 0.05769193, 0.15229361, 0.05861358, 0.090188235, 0.11636856, -0.02984229, 0.13960227, 0.16105613, -0.17939022, 0.15475717, -0.054081928, -0.14479172, -0.030903967, -0.15904891, 0.24336152, 0.10001015, -0.14132312, -0.14118703, -0.290609, 0.13932969, 0.04463129, 0.1677974, 0.010512202, -0.024140356, 0.19442719, 0.26422924, 
  -0.0974087, 0.065458916, 0.022915486, -0.080220506, -0.010153579, -0.02379071, -0.17585467, -0.116599895, 0.07919977, 0.04233528, -0.14359587, -0.13946223, -0.2041713, 0.048575204, -0.17727, -0.19674854, 0.1212238, -0.2224517, -0.2170142, -0.11157988, -0.14774147, -0.22690886, -0.06766825, -0.002732592, -0.20163278, 0.036178675, 0.04661452, -0.06713099, 0.08103774, -0.03155045, -0.054565366, -0.08299444, 0.037188105, -0.028376624, 0.13310957, -0.20616533, -0.15898612, 0.10461618, -0.1311804, 0.0022998138, 0.048367586, -0.2059495, -0.07027793, -0.09991636, 0.12041513, -0.08307632, -0.00973566, 0.042855214, -0.06984525, 0.031162394, 0.13663565, -0.058831103, -0.16773954, 0.07721556, 0.015785083, -0.008301567, 0.11490467, 0.06414191, -0.07899399, -0.073625185, -0.050384507, -0.099150404, 0.09872366, 0.041158438, 0.05064409, 0.004397679, 0.09899095, -0.069682494, 0.15880324, -0.017729895, 0.0031514482, -0.027477287, -0.053422753, -0.113296814, 0.032994106, 0.030283326, -0.06715548, 0.06997543, 0.006243512, -0.05626797, 0.060742136, -0.07622832, -0.11979848, 0.0054670842, -0.07681843, -0.12104501, -0.20197818, -0.037481822, 0.14430313, -0.19736125, -0.076921105, -0.012472019, 0.0060847523, 0.06960868, 0.11348951, -0.058914583, -0.024159187, -0.07304628, -0.09064629, -0.006915278, -0.011241612, 0.089335434, -0.05853388, -0.07985367, 0.03131957, 0.028821979, 0.033888087, -0.10023115, -0.17059961, 0.14205334, -0.15160157, -0.22278576, 0.05602547, -0.2038643, 0.13066258, -0.05837977, -0.011120406, -0.012550931, 0.03161165, -0.09317484, -0.047727276, -0.22098982, 0.0011216463, 0.108963154, 0.00245293, 0.09939957, 0.031462453, 0.010326776, 0.12324679, -0.14133228, 0.02782031, -0.18602563, 0.12519284, -0.13922386, -0.06379089, -0.2131705, -0.1667276, -0.19874913, -0.1722031, 0.024895377, 0.11607284, 0.038661737, -0.021876188, -0.16131745, -0.14177616, 
  0.11875849, 0.044846643, 0.02100293, 0.07547622, -0.037146263, 0.13085552, -0.019871471, -0.10840068, 0.033132963, -0.00012612405, 0.10116395, 0.04184088, 0.20615134, -0.07855096, -0.06696187, 0.2068953, 0.118342064, -0.1527965, 0.14248522, 0.09386319, -0.14969784, 0.0060962075, -0.05011846, 0.1449777, -0.020568963, -0.080225594, -0.11089841, 0.045414537, -0.03374251, -0.06511535, 0.079199575, 0.1791026, -0.08970186, 0.051900715, 0.0713955, 0.032690898, 0.17293696, -0.055238653, -0.10483406, 0.13153851, 0.010816835, 0.022028666, 0.10928166, 0.10063849, 0.17232421, 0.16684714, 0.1886816, -0.009768387, 0.030580629, 0.13911216, 0.022000091, -0.022628898, 0.013033437, 0.02818342, -0.014168396, 0.17335811, 0.15790778, 0.035953455, -0.12565468, -0.14013185, 0.18456982, -0.06286193, 0.06278987, -0.038807016, 0.15345307, 0.13061862, 0.20852426, 0.19530313, 0.16663812, -0.12588881, 0.118463, 0.18620901, -0.123681515, 0.10338727, -0.024365475, 0.010838001, -0.015654696, 0.0034142705, 0.06655414, -0.09217093, 0.1005631, -0.054036874, 0.0869641, 0.14707585, -0.11533642, -0.14607374, 0.114336915, -0.105737165, -0.09096672, 0.024444059, 0.0054446203, 0.1962468, -0.08874506, 0.12071661, -0.100941084, 0.13983476, 0.114864804, -0.03485606, 0.11559562, 0.09909745, -0.10876915, -0.061669756, 0.19640747, 0.16043447, 0.17595105, -0.13155134, 0.20278649, -0.029646482, 0.1482489, 0.01939584, 0.10345869, -0.07955924, 0.1882444, 0.080168955, -0.09583143, 0.06861682, 0.102833144, -0.03329231, 0.20110533, -0.036384393, 0.21219592, -0.09205791, 0.09248466, 0.13683204, -0.148127, -0.03155871, 0.16743127, 0.095196836, 0.11756593, 0.16037421, -0.06179021, 0.18242534, 0.20785202, 0.19721472, 0.19166642, -0.013694485, 0.05742995, 0.010891486, -0.034017686, -0.06656779, 0.029713659, -0.041685775, -0.12857845, -0.003749858, 0.0074944454, 
  -0.028793288, 0.035050448, -0.2048485, -0.10378746, -0.148698, -0.12010375, -0.118243635, -0.01950775, -0.123626135, -0.11548796, -0.13497369, 0.10569995, 0.046257164, 0.024885919, -0.18960844, 0.03347432, -0.037427388, -0.15646337, 0.09579839, -0.031781025, -0.09186486, 0.030860921, -0.10357826, 0.15106374, -0.016073864, 0.04110831, 0.020327318, -0.013114236, -0.035703186, 0.06348138, -0.20797929, -0.21573313, 0.15479401, -0.16150326, -0.061609983, -0.13451861, -0.08666968, 0.11681954, 0.13319848, -0.016624829, 0.07575301, -0.17978182, -0.13651027, 0.0980313, -0.06482778, 0.10341294, -0.15542822, -0.07400349, -0.18131192, 0.0010684334, 0.15506136, -0.16259177, -0.15485595, -0.20237546, -0.18344644, -0.13392332, -0.1451333, 0.025152067, 0.051469687, 0.02382847, 0.028827067, -0.21385044, -0.088022605, 0.1085752, -0.117079325, -0.10873452, 0.083520345, -0.059760116, -0.13285564, -0.20953698, -0.048527442, 0.029682769, 0.12981686, -0.16471474, -0.008040562, -0.027274914, 0.11140094, -0.10561649, 0.09655891, -0.004962747, -0.11183914, 0.15388377, -0.13857982, -0.06376647, -0.17965294, 0.061467882, -0.20553108, 0.13156097, 0.052167073, -0.15262152, -0.19260116, 0.024829801, 0.14128572, -0.08916208, -0.120902754, 0.15850548, -0.07292491, -0.0903272, 0.114785165, 0.025662249, 0.045519143, -0.21224597, 0.022621343, -0.15231429, 0.14982621, -0.021418883, -0.17026545, -0.057357337, -0.16339643, 0.11992157, 0.0045220265, -0.057297036, -0.10689624, -0.069048256, 0.041218728, -0.1799342, -0.050731167, 0.078855485, -0.15134548, -0.0872808, -0.060152527, 0.116352506, 0.1399109, -0.14431357, -0.10284634, 0.134597, -0.09444077, -0.024255846, -0.10967983, -0.13656648, -0.07504232, -0.12144079, -0.019276984, -0.044665437, -0.14826758, 0.13744427, -0.2046579, 0.046326037, 0.14367403, -0.13942425, 0.08205574, 0.12306054, 0.1323769, 0.018733993, -0.18674247, 
  -0.07672545, 0.0639445, -0.08110631, 0.12349519, 0.1893893, 0.15722519, -0.024802474, 0.00029012398, -0.009398042, 0.054882724, 0.20581497, 0.11772911, 0.0063274056, -0.09780284, 0.08841354, 0.071397595, 0.06559831, 0.17879519, -0.012246056, -0.0629954, -0.013518577, -0.09425084, 0.05072421, 0.045004494, 0.08493353, -0.095356375, 0.05254314, 0.009746382, 0.1938637, 0.19981983, -0.06960137, 0.10295684, -0.119887374, -0.00081111636, -0.014328249, 0.13552786, 0.17801447, 0.04781237, 0.16147844, -0.12704174, 0.011399278, -0.13751495, -0.13106789, 0.04557355, 0.018881194, 0.18033366, -0.039855205, -0.080540776, 0.098841906, -0.034348104, 0.16154447, 0.04493312, 0.21444099, 0.067780174, 0.13953972, 0.0067969463, 0.19583204, -0.07289572, 0.052065004, 0.065991424, 0.10515894, 0.066036955, 0.17024004, 0.16510655, 0.10169998, -0.088632375, -0.10556096, -0.13473892, 0.20684084, -0.077771686, 0.07854464, 0.12183216, 0.11740213, 0.11157067, 0.14661987, -0.07312566, 0.12271765, -0.033658247, 0.048354406, 0.06038921, 0.18951009, -0.14443743, 0.19273372, 0.023518287, 0.08323898, -0.0990037, 0.015208337, 0.1718922, 0.20713663, 0.008790523, -0.08170904, -0.05868197, -0.09461101, 0.18652783, 0.16444597, 0.028889773, 0.051545437, 0.102301985, -0.00088929327, -0.014246355, 0.04628655, 0.11054783, -0.11018167, 0.16738768, -0.065618776, 0.034791883, -0.09536907, 0.06955908, 0.1832455, 0.06840099, -0.00013356016, 0.1256355, -0.05570369, 0.21779585, -0.023309087, -0.053751446, -0.09179499, 0.21679051, -0.081375845, 0.2069179, 0.059605394, 0.16625501, -0.048922695, 0.050536547, -0.007894385, 0.0053427406, -0.13120599, 0.06700183, -0.054901753, 0.12185665, 0.10686527, 0.024156356, -0.03188402, -0.141367, 0.02311494, 0.11958923, -0.07386349, 0.22638783, -0.04565349, -0.13247138, -0.020035453, 0.1673413, 0.21650782, 0.18981653, 0.10709881, 
  -0.087469265, -0.17891133, 0.05530658, 0.034364853, -0.13585055, 0.018811105, -0.03137697, -0.032325096, 0.10646149, 0.036231752, 0.0143309515, -0.1992456, -0.16161291, -0.09401554, -0.04597362, -0.21164872, -0.17799088, 0.027910398, 0.09164432, -0.18163949, -0.05806171, -0.13724823, -0.04220436, -0.11660792, -0.065234415, -0.124414764, 0.031440403, 0.03290255, -0.14968726, -0.0047872793, 0.02627403, 0.062325705, 0.0033258416, -0.15622784, 0.03889934, -0.013714711, -0.08799892, -0.1662679, -0.10253286, 0.052535016, 0.05357477, -0.01230064, -0.020713635, -0.19427498, -0.05267795, -0.017761154, 0.0963463, -0.20299813, 0.072602265, 0.036815044, 0.042893928, -0.13964923, -0.20186299, -0.086789064, -0.12263396, 0.06813832, 0.06430218, -0.17117484, -0.1548488, -0.17438352, -0.15855658, 0.10077315, 0.14255796, -0.04857838, 0.013392192, 0.094823495, -0.012252337, 0.049140774, -0.022609076, -0.12659726, -0.008619829, -0.0063197124, -0.14793414, -0.0652575, -0.21411791, 0.09961423, -0.130681, 0.14593247, -0.11281903, 0.102438815, -0.047119908, -0.18554942, -0.21797392, -0.06491658, -0.05176012, -0.23841506, -0.20358896, -0.10746981, -0.19814862, -0.14427541, 0.07860139, -0.16359375, -0.12235979, 0.13035397, -0.19750074, -0.08249205, -0.07054731, 0.12531844, -0.097703725, 0.00020781936, 0.10580066, 0.055848747, -0.15407328, 0.15083772, -0.12089599, 0.012890336, 0.0145742465, -0.105200015, -0.16834874, 0.11620723, 0.08827167, 0.12515487, -0.15224403, 0.018500537, -0.08295027, 0.018293928, 0.071063995, 0.012538724, -0.0006897682, -0.12838185, -0.19735792, 0.059848897, -0.1366867, 0.080686375, 0.067322165, 0.070552155, -0.20408624, -0.136066, 0.077601224, -0.19255957, -0.17634198, 0.07303867, 0.0022508039, -0.13420445, -0.10677023, 0.019293224, 0.11017472, -0.17492686, -0.018217986, -0.08934517, -0.115148425, -0.028498543, 0.099562734, -0.06542481, 0.11447002, 
  -0.03615865, 0.18812023, 0.047975995, 0.04887006, 0.15107687, -0.06490257, -0.0044737644, -0.030468917, 0.23214889, 0.03048789, 0.08088633, 0.0469167, -0.20189294, 0.06960394, -0.016048003, 0.013209273, -0.12809375, 0.011749685, 0.00408495, 0.020019585, 0.023968901, 0.14583915, 0.23093389, -0.16306746, -0.07691078, -0.006656106, -0.21048892, -0.07950786, 0.21312736, -0.13284975, 0.040078185, 0.11648449, -0.12779684, 0.2960521, 0.14834537, -0.178383, -0.15286966, 0.22777016, 0.060441595, 0.035979573, 0.15879087, 0.03762072, -0.14792234, 0.12840052, 0.083509535, 0.022658538, -0.24003622, -0.029155545, 0.2325532, -0.13205892, 0.0863899, -0.23323306, 0.07440943, 0.120397806, -0.1045185, -0.022068666, 0.003864271, -0.11700215, 0.03145635, -0.18085618, -0.044976465, -0.06579337, 0.22689775, 0.009266384, -0.06695769, -0.071218014, 0.01124877, 0.19294159, 0.31761515, -0.19888926, -0.21214414, -0.1070596, 0.18001011, 0.17382991, -0.1668181, 0.048275504, -0.05277897, 0.022281481, -0.20227306, -0.30485696, -0.0034316967, -0.12326516, -0.113565385, -0.3169058, -0.27769035, -0.059488025, -0.13347735, 0.05138026, -0.25582528, -0.356837, -0.1628052, -0.20974316, 0.21736407, -0.15230736, -0.37969288, -0.06386733, 0.037175167, 0.1618142, -0.22363766, -0.043096695, -0.09404773, -0.11820142, 0.43336776, -0.21552724, -0.40494338, 0.09191789, -0.15002888, 0.27187794, -0.03800397, -0.22974643, -0.026413076, 0.09790328, 0.30467898, -0.24988207, -0.10840285, -0.116601884, -0.17583488, 0.23378891, -0.16986454, -0.43041652, -0.08436742, -0.04838261, 0.2631801, -0.30719528, -0.09142449, -0.0018624954, 0.036981918, 0.08308068, -0.25457487, -0.037926495, 0.12542771, 0.07072952, 0.33424377, -0.3532005, -0.35868874, 0.17672355, 0.078600526, 0.44419834, -0.17313443, -0.46615478, 0.2892779, 0.01102997, 0.11964392, -0.023574753, -0.2663503, 
  0.1395681, -0.14306094, 0.08437907, -0.07097249, -0.14427826, -0.113104045, -0.099729076, 0.11537667, -0.10256596, -0.12015823, -0.093125515, 0.0015505665, -0.13811359, -0.18548, -0.10436633, 0.079661906, -0.11582921, -0.09636196, 0.111745924, 0.17419325, -0.20058866, -0.04842508, 0.10681222, 0.14356028, 0.037533093, -0.047313586, -0.1794942, -0.13013478, -0.12603627, -0.058299858, -0.19101268, -0.16549502, -0.092927456, 0.13408348, 0.058120973, -0.19442196, 0.015624194, -0.17822926, 0.07059874, -0.1404558, 0.14634581, 0.06084809, -0.17265177, -0.012215141, -0.04122232, -0.10592769, 0.108909264, -0.008251386, -0.124729805, -0.120562196, -0.15834987, -0.16439547, 0.092653014, 0.08982127, -0.11018756, -0.0051620626, 0.053569913, 0.15535644, 0.07160279, -0.09877406, 0.15469311, -0.17836887, 0.14186852, 0.1723527, -0.04661209, 0.03406214, 0.1640938, -0.053811915, -0.1737231, -0.11737858, -0.1672563, -0.15701233, 0.064798385, -0.04698953, -0.090600446, -0.035246678, 0.0924858, -0.06941764, -0.026007947, -0.14717384, -0.06620481, 0.06790082, -0.022275409, -0.14642492, 0.11440094, -0.15911485, -0.14432651, -0.04602285, -0.005975114, -0.17532724, 0.10220692, 0.10057323, -0.011250235, 0.05601102, -0.14524053, 0.0668244, -0.014099014, -0.06871193, 0.07769985, 0.11695906, -0.15964474, 0.14976823, -0.042307377, -0.09645483, 0.057906304, 0.08275559, -0.17439719, -0.14188577, 0.17502952, -0.114958845, -0.1134375, -0.117445305, -0.1852348, -0.1430967, 0.06291455, -0.006557159, 0.028044647, -0.05738112, 0.14687802, 0.15661812, 0.15598235, 0.12696303, 0.16055954, 0.111744195, -0.082902566, -0.13082623, -0.16352198, 0.056195464, 0.0052654184, -0.12533197, -0.13414928, 0.101603754, -0.10945755, 0.024013687, 0.15246612, -0.1404357, -0.18814777, -0.12397587, 0.05577699, -0.111756526, -0.06736255, -0.11540843, -0.049165703, -0.106307745, -0.121688046, 

  0.6125171, 0.29508334, 0.14311612, -0.18406999, -0.84848404, 0.23175135, -0.10334782, -0.37003046, 0.24531275, -0.39182028, -0.010548378, 0.45707932, -0.13053097, -0.8788486, -0.12566686, 0.0025900295, 0.6809689, -0.45162052, -0.08591833, 0.034064278, -0.03367098, 0.8836876, -0.095228456, 0.6271312, 0.7911094, -0.004514843, -0.11216568, 0.030460447, 0.28636596, -0.10388778, 0.09439042, -0.23079388, 
  -0.89447325, -0.10665433, -0.2631649, 0.08842416, 0.8989519, 0.28270346, 0.15852405, -0.15710758, 0.24782266, 0.35060358, 0.038743284, -0.35669944, 0.09181085, 0.77321756, 0.64586157, 0.017629353, -0.42396095, 0.3786118, 0.31267405, -0.021712113, -0.033879306, -0.5983518, -0.31151, -0.91231, -0.80552703, 0.105964236, 0.16546644, 0.050583623, -0.25171688, -0.2632746, 0.36949903, 0.2167888, 
  0.5319778, 0.06850968, 0.0039112787, 0.14213943, -0.7179929, -0.09506819, -0.100727126, -0.6845225, -0.056635015, 0.4634316, 0.16101508, -0.19732177, -0.07840678, -0.6312461, 0.20175593, -0.09372356, 0.6163798, -0.728074, -0.32974535, 0.035581864, 0.41996917, 0.9900791, -0.08662122, -0.7038723, 0.58170414, 0.08674766, -0.0665566, 0.119698815, -0.035186358, -0.09866, -0.6151392, -0.24818952, 
  -0.4370619, -0.061710205, -0.07649009, 0.29549405, 0.2788763, -0.0034875402, -0.1736946, 0.509756, -0.3396309, 0.15105562, -0.07882555, -0.21851805, -0.1870404, 0.5555105, -0.19366522, -0.18650451, -0.03183069, 0.27823973, 0.15907766, -0.04359275, 1.5000453, 0.5400373, -0.43667585, -0.59830654, 0.7102368, -0.045058284, -0.12873174, -0.26610222, -0.27075705, 0.11556364, 0.7509591, -0.2935154, 
  -0.2772843, 0.031997018, -0.13996913, -0.079427026, -0.20572975, -0.33141753, -0.16177258, -1.1985437, 0.36129445, 0.8168868, -0.17820792, 0.48811552, 0.1845638, -0.04063992, 1.169589, 0.26878992, -0.64784, -0.9039761, -0.27124947, 0.15457548, -0.6949568, 0.7388863, 0.18667233, -0.57973427, 0.7567607, -0.19084138, 0.30256402, -0.08766847, -0.21952517, -0.30049157, -0.7416119, 0.004876507, 
  -0.028285826, -0.0364199, -0.102973975, 0.028928457, -0.0038728234, 0.2646736, -0.3338684, 0.37834466, -0.35278213, 0.25898775, 0.1605944, -0.07598922, 0.029040629, 0.09806836, -0.51377165, 0.084936194, 0.72965306, -0.18873493, 0.13198566, -0.22242194, 1.7475917, 0.9859774, -0.46038997, -1.0320268, 0.84365416, 0.18364982, -0.10467542, -0.024764985, -0.3257847, -0.19366428, 0.8860757, -0.23404543, 
  -0.06251295, -0.061202664, 0.29667947, -0.13665056, 0.120131, -0.29391882, 0.11219568, -1.0608642, -0.15355265, 0.77651733, -0.047903966, 0.4379597, 0.2074317, -0.09157598, 0.9812551, -0.14330971, -0.13129635, -0.5481427, 0.13868503, 0.10873179, -0.14214604, 0.8179133, -0.1483705, -0.9680759, 0.4944948, -0.2872959, -0.08630553, 0.0129207885, -0.174377, 0.033216562, -0.7422848, -0.30330244, 
  0.8670047, 0.04981938, 0.0075250166, -0.14642459, -0.46891984, -0.03777049, -0.1167108, -0.17537725, 0.08778447, -0.44464126, 0.14552642, 0.3877066, -0.20918402, -0.31517512, -0.2612292, 0.03457477, 0.66816145, -0.33762494, -0.032920234, -0.030593634, 0.8361509, 0.9286485, -0.2757961, 0.24214828, 0.63184947, -0.19217622, 0.14246088, 0.15961303, -0.19896528, 0.09140696, -0.066600196, -0.08127609, 
  0.77912, -0.1450642, 0.20447408, 0.18034536, -0.91364753, 0.19021246, 0.019705005, 0.1871931, -0.17267306, -0.95485914, -0.2162764, 0.43340787, -0.07983157, -0.8202554, -0.5865752, 0.3695363, -0.044333704, 0.55879164, 0.004091312, 0.05305057, -1.358888, -0.68504333, -0.0074818023, 0.6525319, -0.13556159, -0.21570325, -0.18688545, 0.23122098, 0.24344681, 0.20584972, -0.15567379, -0.11382575, 
  0.79261184, -0.032278344, -0.11738546, -0.18323407, -0.24235107, 0.27239522, -0.08522329, 0.13648908, 0.06255151, -0.37830088, 0.09914401, 0.5190399, -0.123988666, -0.5835801, -0.3587933, -0.07639745, 0.25877964, -0.027951755, 0.065910056, 0.10051145, -1.483014, -0.8609724, -0.036567956, 1.0752519, -0.5180111, 0.07475583, 0.21443431, -0.05239965, 0.22184643, -0.22289805, -0.14244704, -0.09214252, 
  0.42217574, -0.030479897, 0.1168338, -0.2260186, -0.40558803, 0.044952277, -0.008846905, 1.117055, -0.38301057, -0.5081578, 0.10212296, -0.0022669227, -0.29415697, 0.016003879, -0.6508801, -0.26252034, 1.182831, 0.6320576, 0.43479282, 0.16651277, 1.3734533, 1.0557208, -0.013701013, -0.22957191, 0.53711313, 0.13063589, -0.10836671, 0.15181501, 0.13671617, 0.30704847, 0.70698196, -0.007888102, 
  0.712854, -0.19750997, -0.28704295, 0.08072524, -0.5401472, 0.13094382, -0.26436764, 0.47738397, 0.2528326, -0.7102096, 0.27317178, -0.088898845, -0.0641077, -0.5887356, -0.5922076, 0.113232106, 0.30306834, 0.30058065, -0.022003476, 0.0947818, -1.0612636, -0.509191, -0.010535288, 0.8625704, -0.73046917, -0.29950222, -8.474585e-05, 0.11287612, 0.2166258, 0.12930097, -0.021816934, 0.103102155, 
  -0.6562246, -0.121010736, -0.16693683, 0.14318168, 0.8684445, -0.055412684, -0.13987383, -0.62711215, -0.035240926, 0.97855306, 0.068941414, -0.2112079, 0.19987047, 0.80248755, 0.5527995, 0.1721694, -0.18470557, -0.37831774, -0.13557003, 0.1941096, 0.6153545, 0.6196328, 0.15882063, -0.7567504, 0.63676, -0.24738762, 0.005513304, 0.015412261, -0.19032381, 0.233329, 0.13504556, 0.2346231, 
  -0.79641205, 0.13968971, 0.11401313, -0.015957352, 0.9256918, 0.17680565, -0.19708766, -0.47160837, 0.18050976, 0.49148333, -0.26971257, -0.17924441, 0.04433665, 0.8184657, 0.85060793, 0.13727427, -0.7520503, -0.26078457, 0.13449508, 0.008953014, 0.23651393, -0.5957741, 0.10377408, -0.77869767, -0.4657829, -0.21855469, -0.26636305, -0.15603006, -0.17325561, -0.11987265, -0.18491091, -0.20877181, 
  -0.37387794, -0.06520907, -0.34241116, -0.21218318, 0.5495338, -0.10927798, -0.016557967, 1.0651268, -0.19688995, -0.58190876, 0.14912374, -0.44960532, -0.28013864, 0.5382949, -0.85210943, -0.029510017, 0.2484166, 0.6114483, -0.039049458, -0.07472418, 0.118160404, -0.7607195, 0.0817679, 0.26484314, -0.7408108, 0.24806707, 0.105808735, 0.09489331, -0.20610209, -0.1061933, 0.50361997, 0.19745374, 
  0.8983473, -0.3023087, 0.0563569, -0.002164957, -0.86987, -0.048865594, 0.029718785, 0.31996664, -0.06326254, -0.6410137, -0.27443653, 0.3073143, 0.13604152, -0.661184, -0.71695596, 0.22235672, 0.6867964, -0.043854274, -0.11566696, -0.048703324, 0.0155924875, 0.7443366, -0.17194219, 0.8117348, 0.8642859, 0.1339214, -0.10154664, 0.062058996, -0.07344074, 0.25782666, -0.09295982, 0.047370292, 
  -0.7541956, -0.1639786, -0.19587438, -0.23879528, 0.34328023, -0.18862563, 0.011092951, -0.15352309, 0.14846613, 0.42021626, -0.17429319, -0.13446368, 0.19055544, 0.60628706, 0.8331617, -0.19786821, -0.13932079, -0.49263412, -0.24270083, -0.115701914, 1.2292459, 0.654734, 0.187911, -0.601958, 0.403581, -0.14656775, -0.07611236, -0.22082868, 0.012268126, -0.07520246, 0.07317612, 0.11471244, 
  -0.54076606, -0.18144795, -0.055841185, -0.22205041, 0.39102626, -0.24983169, -0.21871954, 1.0969075, 0.021425404, -0.21362042, 0.07790987, -0.35534605, -0.33291033, 0.2231764, -0.5505007, -0.14908043, 0.19787505, 0.76655996, -0.08121003, 0.14984815, 0.11261463, -0.709181, -0.3359822, 0.20361711, -0.7978079, 0.034397718, -0.058685742, -0.23310268, -0.03950464, 0.019535193, 0.9374881, -0.19548866, 
  0.9693278, 0.1558573, 0.03198051, 0.16519652, -0.78159887, 0.049868114, 0.3151203, -1.0117667, -0.050412696, 0.3592651, 0.15840998, 0.47830904, 0.061339658, -0.5040348, 0.102638625, -0.00811572, 0.26862946, -0.6050016, 0.020090586, 0.003486128, -0.2012485, 0.86634785, 0.32967722, 0.068130024, 0.6363017, 0.123863384, 0.20309381, 0.18934834, 0.37345752, -0.07885171, -0.768435, -0.28088674, 
  -0.6074665, 0.20218983, 0.29622087, 0.13406181, 0.7743044, 0.31581154, 0.31393448, 1.0761184, 0.08970471, -0.6421307, 0.18593533, -0.3487954, 0.19823976, 0.45031038, -0.16283338, -0.122271955, -0.33025813, 0.85747147, 0.36861584, -0.16309552, -0.36823085, -0.85101366, 0.36844042, 0.62020975, -0.88773507, 0.20630254, -0.1544321, 0.2691598, -0.20285961, 0.08348302, 0.4875768, -0.30322942, 
  -0.75134534, 0.040365934, -0.33119974, 0.2508065, 0.33297884, -0.15719633, 0.026226843, 1.0333064, 0.036145914, 0.028021686, -0.15182994, -0.53741705, -0.10392807, 0.31727576, -0.67056155, -0.15405741, -0.06480432, 0.43684444, -0.06438513, 0.0013206571, 0.105497696, -0.30332085, -0.20199668, -0.06570597, -0.55632746, -0.0975143, -0.30997795, -0.27060157, -0.057504963, -0.1446282, 0.85196376, -0.2954366, 
  -1.0808305, -0.2389603, -0.030899197, 0.058238816, 1.0583318, -0.20535855, -0.040813208, 0.1819449, 0.2199936, 0.0627893, -0.055724323, -0.24091712, 0.18711296, 0.6160025, 0.30857718, -0.37578866, -0.8681782, 0.54637665, 0.05005701, -0.25174573, 0.00082405366, -0.43574527, 0.19385807, -0.7235016, -0.71667707, -0.13473246, 0.103167854, 0.18052907, -0.0182867, -0.0059328545, 0.16153288, 0.14071898, 
  -0.2991238, 0.16582148, 0.19893487, 0.15254998, 0.085061714, -0.07541999, 0.255413, 1.1590091, -0.09980509, -0.75918925, -0.29518017, -0.18801782, 0.23877098, 0.3539347, -0.66402054, -0.09435815, -0.070359945, 0.42283273, 0.18757235, 0.23163693, -0.14984867, -0.54223424, 0.04255714, 0.8551274, -0.884186, -0.30742374, -0.23342232, -0.026542764, -0.19484171, 0.01614699, 0.82071364, 0.016559191, 
  -0.8703545, 0.093834355, -0.24629712, -0.17669266, 0.7173228, 0.0024619384, 0.22942773, -0.5543199, -0.31138444, 0.6313529, 0.2742317, -0.36749908, -0.3177534, 0.43658745, 0.7906891, 0.249803, -0.82449025, -0.1474046, 0.294592, 0.02892572, -0.44016767, -0.9500135, 0.11176788, -0.5679784, -0.7011956, -0.17535777, -0.14349003, -0.2532567, 0.20792666, 0.07523622, -0.48595256, -0.094077475, 
  0.018701127, 0.16624974, 0.080717236, 0.19854553, 0.039559152, 0.19743477, -0.2759956, -0.84931886, -0.15069693, 0.6550434, 0.17789288, 0.17074677, 0.0060800095, -0.1835689, 0.6972816, 0.036406733, 0.16920358, -0.46900603, 0.23619972, -0.022769358, 0.25035125, 0.8308247, 0.01252849, -0.6625486, 0.7931318, 0.11055, -0.106788285, 0.011101857, -0.13175657, 0.08560695, -0.7706917, 0.095595255, 
  0.37121695, -0.10713589, -0.03845407, 0.07423879, 0.25723454, 0.12767668, -0.23783252, 0.7846111, -0.035310254, -0.30993837, -0.24470435, -0.35118422, -0.25404888, -0.2629937, -1.1200575, -0.109000005, 1.1070487, 0.27617642, 0.29665008, 0.00627249, 1.3114111, -0.21965677, 0.07293316, 0.3368656, -0.15907195, 0.09553049, -0.16643548, 0.23171456, 0.07973227, -0.27306443, 0.8581159, 0.22723517, 
  0.2333134, -0.030522214, -0.043584127, 0.02435568, -0.14796387, -0.33850995, 0.3814269, -1.2759088, 0.27596676, 0.43990976, 0.27735177, 0.60986143, -0.045999106, 0.07316062, 0.9041163, 0.05327103, -0.65400606, -1.0338973, -0.2611482, -0.31042147, -0.5748928, 0.7938809, 0.4180458, -0.8578291, 0.37339616, 0.080197126, 0.03936068, 0.109474786, 0.014158896, -0.2977519, -1.0867136, -0.14435805, 
  -0.5185747, 0.053440228, 0.32762805, -0.2640645, 0.44224846, -0.18837963, 0.072437234, -0.8359348, -0.12936428, 0.43653673, -0.030799614, 0.12540096, -0.07204119, 0.37046254, 0.48336795, -0.1642173, -0.97492, 0.16558683, -0.15357053, 0.08620289, -1.4532913, -0.8424146, 0.03642857, -0.0660426, -0.6444018, -0.12807466, -0.21832547, -0.20996906, 0.1354141, 0.32951638, -0.4761634, 0.08809426, 
  0.8075283, 0.06844157, -0.08136504, -0.30552983, -0.8350782, 0.09323349, -0.13568062, 0.3922252, 0.3422381, -0.15501349, -0.16345622, 0.4239814, 0.27763227, -0.2543556, -0.708928, -0.12961264, 1.0724362, -0.30941442, -0.10370138, -0.036471896, 0.6255682, 0.5364905, -0.08309968, 0.44749156, 0.81756157, 0.13965586, -0.20198813, -0.085832134, -0.06804556, -0.28507075, 0.5739681, -0.25124526, 
  -0.5349001, 0.15551697, 0.24562688, 0.3103439, 0.3618331, 0.25646886, -0.04838555, -0.28663546, -0.24642661, 0.93813264, 0.26720852, -0.25461447, -0.10758731, 0.5579353, 0.5738666, -0.066106364, -0.048528757, -0.5637144, -0.02979683, 0.12419837, 1.0572944, 0.8239338, -0.13833225, -0.82079667, 0.70041573, 0.0411188, 0.0027588806, -0.16338567, 0.07812985, 0.3248625, -0.00032500888, -0.034668833, 
  0.55846995, 0.008794036, -0.2016012, 0.025576415, -0.721717, -0.28543034, -0.3620355, -0.4823568, 0.029346963, 0.116456866, -0.29496872, 0.37077644, 0.014095658, -0.4413544, 0.08171182, -0.22244741, 0.5844383, -0.52072966, -0.08920672, -0.07030968, 0.43682244, 0.99782175, 0.013906836, -0.4254996, 0.74605954, -0.10879438, 0.16789386, 0.33287054, -0.400386, -0.068265244, -0.25095463, -0.005240175, 
  0.47043642, -0.13649163, -0.073798865, -0.054134887, -0.8466888, -0.31094956, 0.25547552, 0.32126954, 0.033836447, -0.7471313, -0.16068634, 0.36999097, -0.093917325, -0.79649436, -0.35409078, 0.21645905, 0.2628766, 0.07432452, -0.065411225, 0.09325181, -0.750119, -0.2915695, 0.035883207, 0.5987906, 0.006873976, 0.13076472, -0.03021907, -0.076898225, -0.21861546, -0.07878613, 0.10972169, 0.15550746, 

  0.33646828, 0.059352644, -0.21396023, -0.5292473, 0.18899794, -0.51209795, -0.21158858, -0.057193223, 0.78808385, 0.58115387, -0.3345011, 0.21987312, -0.26836202, 0.123600215, 0.076198176, 0.3355243, -0.45816025, -0.2750346, 0.17520912, 0.4352296, -0.19485854, 0.26047444, -0.04437464, 0.13827024, 0.14652926, -0.33959362, 0.18368593, 0.046622265, -0.13097855, -0.6440698, 0.1157046, 0.37688148, 
  0.36643654, -0.6470762, 0.0630226, -0.19581734, -0.39438796, 0.13976707, 0.029428165, 0.54790765, 0.78565836, 0.41172093, 0.302913, 0.4784014, -0.24967672, -0.5203998, -0.33387214, 0.6282803, -0.30216947, -0.19983055, 0.24998279, -0.3454188, -0.3682353, -0.24952888, -0.24466221, -0.817385, 0.0750533, 0.28909746, 0.21773903, -0.4386738, 0.6304844, -0.25787178, 0.47323358, 0.44037634, 
  0.60359794, -0.538623, 0.17959663, 0.22437654, -0.32623065, 0.65934676, -0.25115705, 0.39053392, 0.46990705, -0.22460747, 0.42345658, -0.05311885, -0.14346696, -0.5190882, 0.16390583, 0.69269174, 0.16210307, 0.16346554, 0.20453814, 0.1264694, 0.23112668, -0.19436796, 0.27239737, -0.26823494, -0.27712435, 0.63916534, -0.68931687, -0.121834405, 0.8346656, -0.18468708, 0.25504905, 0.0067783417, 
  -0.48316458, 0.58621395, 0.14577702, 0.35248566, 0.47866827, -0.10835668, 0.29580772, -0.01979294, -0.68894434, -0.20603359, -0.28487876, -0.20221211, 0.14514697, 0.5817922, 0.052043315, -0.7961714, 0.46452788, 0.40404797, -0.4355592, 0.08712354, 0.11587784, 0.3069718, -0.21988441, 0.6174018, 0.37182924, 0.04949466, 0.10168934, 0.072258495, -0.2530474, 0.44786558, 0.19498101, -0.51963145, 
  0.060278967, 0.0004998358, -0.060247414, -0.22763973, -0.41930223, -0.40984017, -0.3505988, -0.12995562, 0.25141007, 0.43367833, -0.19677074, 0.3854823, -0.40786442, -0.3006105, 0.3788306, 0.27329034, -0.4967337, 0.1915723, -0.28569165, 0.13787714, -0.20270248, -0.19326068, 0.42756593, -0.24101308, -0.22540729, 0.37620932, -0.15948857, -0.13195576, 0.034620326, -0.095073014, -0.3430983, 0.28957754, 
  -0.52349126, 0.10634036, -0.48854476, -0.014907398, -0.75822353, 0.30347478, -0.82726455, -0.31425425, 0.23365644, 0.039039224, 0.1580298, 0.3162475, 0.06282703, -0.027886722, 0.6350469, -0.20886017, -0.10635473, 0.531379, -0.6975174, 0.27798438, 0.45332855, -0.015716996, 0.80945694, -0.14910837, -0.3922214, 0.5165064, -0.6307935, -0.06851922, 0.21836825, -0.14310282, -0.26901245, -0.12221791, 
  -0.5212429, 0.5170553, 0.0027952008, 0.42458877, 0.26336518, 0.34068412, 0.65891993, -0.057628293, -0.5995382, -0.300841, 0.26217836, -0.4905194, 0.70353043, 0.85322624, -0.053802352, -0.7055149, 0.37960896, 0.066203855, -0.043217197, -0.032919314, 0.33983347, 0.533551, -0.32316524, 0.32806796, 0.5637705, 0.030584674, 0.09550086, -0.1301617, -0.44807735, 0.6182165, -0.047507152, -0.5389175, 
  0.12221297, -0.42854357, -0.028283127, -0.1340695, -0.3517512, -0.6237178, -0.06784726, 0.22359908, 0.8107689, 0.5538938, -0.17633487, 0.5432722, -0.6309227, -0.27889323, 0.081989974, 0.28613734, -0.37582642, 0.30025947, 0.18929043, -0.07666077, -0.114680745, -0.17771588, 0.24682759, -0.30270442, -0.22133484, -0.18625547, -0.13733849, 0.26297128, -0.2188116, -0.47950995, -0.421639, 0.5486294, 
  -0.17001462, -0.08301727, -0.61323386, 0.20651719, -0.9769378, 0.09149593, -0.7424292, -0.10438808, 0.65937066, 0.2589131, 0.47994214, 0.21882209, -0.32241493, -0.11565692, 0.6498445, 0.27245435, -0.38268986, 0.6810992, -0.43000293, 0.45389566, 0.50614357, -0.066860765, 0.774198, -0.046543363, -0.6901785, 0.8102945, -0.98328626, -0.23978528, 0.24684429, -0.29105827, -0.60703826, 0.47404838, 
  0.30350885, -0.20288919, -0.45964548, -0.49974817, 0.19805871, -1.1745548, -0.11023852, -0.098287806, 0.68115544, 0.6466106, -0.7982552, 0.6878699, 0.08353537, 0.2741189, -0.2105475, 0.054048765, -0.27786323, -0.13313548, 0.44978777, 0.63049495, -0.055130787, 0.063866094, 0.32755533, 0.51558715, -0.16351093, -0.5988261, 0.56734276, 0.48401994, -0.43262017, -0.3377389, -0.34323514, 0.54396707, 
  -0.34831578, -0.07745076, -0.19615844, -0.27135918, 0.1112184, -0.75084895, 0.21161959, -0.12463198, 0.44959, 0.056554087, -0.36623055, 0.19654742, -0.117975324, 0.1419785, -0.022954231, -0.14969505, 0.01600809, -0.0900612, 0.14828607, 0.24849024, 0.012913357, 0.35889328, -0.12304913, 0.66387045, -0.20853768, -0.51918083, 0.4645764, 0.7683688, -0.6505517, -0.19933943, -0.37620682, -0.024857704, 
  -0.3909972, 0.372609, 0.09460382, 0.053743, 0.21774189, 0.5579155, 0.69947195, -0.14458123, -0.45562795, -0.6442034, 0.1089558, -0.6411843, 0.8320582, 0.4687869, -0.13790391, -0.328596, 0.61921763, 0.17293346, -0.22023845, -0.2169273, -0.1380849, 0.069808, 0.05219752, 0.8276104, 0.6842342, 0.12610163, 0.22803727, 0.059011046, -0.32845017, 0.62275815, 0.09208769, -0.53192127, 
  -0.26045516, 0.40252915, -0.3965265, 0.14103642, -0.49771354, -0.023803912, -0.031753186, -0.40155318, 0.33237746, 0.0030299067, 0.044340283, 0.25146088, 0.06312972, -0.10024044, 0.80347073, -0.2842005, -0.13054144, 0.6316756, -0.3762515, 0.4130451, 0.38330558, 0.71073633, 0.89613223, 0.550373, -0.594213, 0.048977174, -0.20930924, 0.55437046, -0.33812267, -0.39959794, -0.362711, 0.29643455, 
  0.012388499, -0.064258225, 0.308257, -0.0010662258, 0.76061684, 0.14112705, 0.525248, -0.0010079369, -0.5909794, -0.35211655, -0.6047054, -0.4591726, 0.38584772, 0.3455787, -0.26661465, -0.46481875, 0.27103996, -0.4930854, 0.4451553, -0.31540233, -0.3676293, 0.0019819438, -0.7221294, 0.33783683, 0.48667407, -0.759065, 0.8983852, 0.20042878, -0.5431729, 0.42537037, 0.3321246, -0.44882643, 
  0.54464054, -0.49238643, 0.30349964, -0.007950741, -0.8820593, 0.74572253, -0.25367412, 0.51318526, 0.39569226, 0.2433368, 0.8983046, 0.21617603, -0.17005287, -0.1085249, 0.11795991, 0.7477879, -0.21989352, 0.14557172, -0.027347226, 0.40408412, 0.33505386, -0.29315138, 0.47996554, -0.5927235, -0.13459386, 0.7332244, -0.61347514, -0.3984181, 0.82393545, -0.32520604, 0.39840162, 0.21199602, 
  0.4942149, -0.6469009, 0.18555798, -0.4344548, 0.42217484, -0.36469597, 0.3327671, 0.05672039, 0.69901216, 0.35888222, -0.018770406, 0.5055517, -0.5855774, -0.59937567, -0.24296369, 0.586552, -0.12307824, -0.27577055, 0.15025434, -0.1427156, 0.06553735, -0.62018174, 0.2500638, -0.55527556, -0.16648394, -0.19855149, 0.28820914, 0.17374659, 0.45011455, -0.20970884, 0.30634528, 0.4003253, 
  0.62427235, -0.3132177, 0.35608563, -0.3981398, 0.6575952, -0.19152316, 0.48174092, 0.2578621, 0.9243529, 0.2376757, -0.14191541, 0.50027424, -0.4202996, -0.33260572, -0.536471, 0.3714579, 0.015725378, -0.39097813, 0.81371623, -0.41716227, -0.27893218, -0.31339183, -0.08785894, -0.413074, 0.4000299, -0.33503798, 0.9837285, 0.2904381, 0.5737509, 0.002792414, 0.22787002, 0.18901321, 
  -0.21457256, 0.47124502, -0.24569616, 0.104112506, 0.061358538, -0.45154473, -0.13226189, -0.37168968, 0.2937297, 0.19974785, -0.2314005, 0.263192, 0.2963144, 0.36916393, 0.8640918, -0.31511542, -0.31603208, 0.78792554, -0.66348284, 0.6388408, 0.26357096, 0.7489076, 0.85916597, 0.37311077, -0.15049407, 0.18500836, 0.03255629, 0.75981104, -0.55354077, -0.33991292, -0.301521, 0.117563225, 
  -0.0036368542, -0.2313867, 0.27947056, 0.34673843, 0.07944797, 0.5271843, -0.20338865, 0.339294, -0.5576754, -0.17974557, 0.13168214, -0.19989957, 0.19605537, 0.22143114, 0.247844, -0.017023807, 0.3350172, -0.070310555, 0.2382633, -0.41183126, 0.14983587, 0.21926971, -0.26591894, -0.35997972, 0.29483446, 0.08333362, -0.5377859, -0.001749988, -0.0052668164, 0.5119218, 0.25779685, -0.15617433, 
  0.008630707, -0.07618492, 0.0058138836, 0.3253919, -0.84189814, 0.5390693, -0.45537895, 0.29649612, -0.30798948, 0.039289963, 0.8001614, -0.3452692, -0.06343065, -0.15872492, 0.3061602, -0.1343686, 0.28456813, 0.40950084, -0.6700747, 0.23502432, 0.25497824, -0.24438192, -0.052739657, -0.3536766, -0.058137175, 0.68738794, -0.73900723, -0.31397763, 0.46277696, 0.21522693, 0.080684125, -0.2372555, 
  0.7740488, -0.44059277, 0.22654362, -0.10789745, -0.27865592, 0.40640998, -0.033737622, 0.2670022, 0.21676674, 0.1122982, 0.35310537, 0.025373112, -0.009814873, -0.42237395, -0.03697682, 0.6563863, -0.33882147, -0.053738452, 0.6358405, -0.6804134, 0.11365635, -0.59823436, -0.30155292, -0.4882944, 0.29021907, 0.26411363, -0.19592193, -0.4967955, 0.3534864, 0.13768722, 0.33277038, 0.024919972, 
  -0.5583848, 0.3399551, -0.41258818, -0.037245255, 0.1589043, -0.7450616, -0.12046374, -0.26919276, 0.016068967, 0.13642983, -0.36429313, -0.19055931, 0.03300843, 0.38425705, -0.0332203, -0.79329586, 0.31447005, 0.023866614, -0.07371999, 0.30363044, 0.23781432, 0.1866208, 0.18553528, 0.65399104, -0.021699432, -0.7478072, 0.46671882, 0.5148812, -0.8927519, -0.046603035, -0.48254043, -0.2791815, 
  0.21926406, -0.20200269, 0.2947037, -0.31666878, 0.6256957, 0.39368558, 0.7838979, -0.0041153408, -0.17923386, -0.24555193, -0.12763745, -0.6254539, 0.3831455, 0.43236843, -0.7764554, -0.10596239, 0.3450077, -0.67797744, 0.53362685, -0.7345339, -0.23258133, -0.25893217, -0.87515837, 0.26175463, 0.7052241, -0.6996344, 0.6875502, -0.0056863115, 0.066600114, 0.13055208, 0.16642003, -0.11793267, 
  0.02006269, -0.49233133, -0.22471772, -0.16053057, -0.33307254, -0.6049423, -0.6021352, -0.09605698, 0.8612664, 0.6183374, -0.29187945, 0.48121718, -0.36201134, -0.6983042, 0.14982773, 0.6795308, -0.3727207, 0.092627816, 0.17893438, 0.22943309, -0.17060062, -0.61415136, 0.20017897, -0.84533125, -0.5311945, 0.3366009, -0.6521055, -0.28254083, 0.45054114, -0.9454442, -0.10515373, 0.46532914, 
  0.6166615, -0.18348199, 0.27270865, -0.1350838, 0.04419425, 0.415678, 0.014417185, 0.635575, 0.18827985, 0.20295155, 0.13705146, 0.21979852, -0.22503653, -0.44634935, -0.4531518, 0.64159924, -0.1744852, -0.19369027, 0.53321683, -0.867811, -0.1907431, -0.7689384, -0.55051774, -0.48914215, 0.16049644, -0.084603034, 0.06392249, -0.6094104, 0.34373003, 0.09241893, 0.4899742, 0.28390223, 
  0.613029, -0.6566693, 0.41512415, 0.16979024, 0.3428299, 0.3629059, 0.22135572, 0.08370523, -0.36384308, -0.12428722, -0.01224672, -0.45553243, 0.12545249, -0.5486989, -0.57891154, 0.2209274, 0.0029618808, -0.74978507, 0.39867786, -0.69890773, -0.43960306, -0.24886823, -0.49649474, -0.6225467, 0.39811605, -0.26255655, 0.28432035, -0.5737728, 0.21490084, 0.05729387, 0.328035, 0.27136475, 
  0.4156694, 0.10106799, 0.24238461, -0.0043615205, 0.82280284, -0.11383989, 0.6448854, -0.23688059, -0.025199637, 0.14154644, -0.6646178, -0.48352027, 0.45238745, 0.47321132, -0.67166, -0.2712929, -0.13460223, -0.46019393, 0.33665964, -0.5607002, -0.08197267, -0.3665154, -0.848145, 0.4518982, 0.4530037, -0.48248366, 1.0253268, 0.38602775, -0.35608026, 0.2309962, 0.22951317, -0.14847548, 
  -0.40211445, 0.3038026, -0.6283088, 0.11756741, -0.9886353, 0.40726557, -0.70237184, -0.40177786, -0.5806301, -0.34908792, 0.5857253, 0.20396994, 0.019132344, 0.126723, 0.579993, -0.30738947, 0.14656883, 0.1538141, -0.6166275, 0.20975897, 0.19013877, -0.088871054, 0.73012584, 0.07524161, -0.68576306, 0.77694714, -0.651935, -0.3891529, -0.22593203, -0.20033155, -0.42492914, -0.35438442, 
  -0.2582285, 0.26336515, 0.28157642, -0.11424407, 0.7107885, 0.34799877, 0.7043504, 0.19846547, -0.21283115, -0.3514062, -0.36520728, -0.35067856, 0.5734793, 0.6006517, -0.3594278, -0.5641346, 0.15432446, -0.3874654, 0.2179026, -0.4418907, -0.24439363, -0.0026154583, -0.4666471, 0.64131945, 0.48086554, -0.5092881, 0.6464405, 0.11334109, -0.008031089, 0.6144782, 0.062217217, -0.34564722, 
  -0.31915376, 0.5364719, -0.5994036, 0.13085224, -0.0381876, -0.16160642, 0.003551536, -0.3792946, -0.49684674, -0.1268233, 0.022042839, -0.43280503, 0.4470986, 0.53607357, 0.44302595, -0.6964554, 0.04477617, 0.2672463, -0.6598498, 0.6185249, 0.27590635, 0.5709298, 0.03678307, 0.72982043, -0.19995363, -0.1590705, 0.05690428, 0.47560868, -0.5557622, 0.34298918, -0.32475346, -0.5768116, 
  0.61359113, -0.5797136, 0.4044064, 0.14160968, 0.25258705, -0.0038342364, -0.15109569, 0.525931, 0.6413652, 0.12526394, -0.010166282, 0.23118947, -0.35689467, -0.6648279, -0.1636456, 0.9086274, -0.16581795, -0.4617378, 0.46466103, -0.6114902, -0.17690814, -0.65189797, -0.25254363, -0.71258026, 0.35276207, -0.029294841, -0.006366643, -0.192446, 0.4860681, -0.068041116, 0.5778228, 0.44729334, 
  -0.29415116, 0.27856883, -0.6092878, 0.0451669, -0.42100778, 0.14654341, -0.6831568, -0.14909053, 0.5582187, 0.11059712, 0.51224154, 0.6459088, -0.5307497, -0.26710996, 0.33925924, 0.5825897, -0.26563856, 0.716611, -0.6181227, 0.6861236, 0.42443523, 0.050748967, 0.6234965, -0.46604434, -0.6206431, 0.36607644, -0.6953793, 0.20955384, 0.0022125517, -0.3136577, -0.40613863, 0.08383337, 

  -0.54319596, -0.61869556, -0.111049585, 0.05861071, 0.05813224, 0.5795873, 0.34525642, -0.5604581, 0.565773, -0.5791253, -0.114439644, 0.13955617, 0.43450066, -0.24408953, 0.2455895, -0.98073196, -1.1302146, 0.04485278, -0.12863284, 0.43705508, -0.36678404, -0.25553715, -0.73169893, -0.5478413, -0.7989849, -0.4464458, -0.8939967, 0.77973056, -0.13927014, 0.08683441, -0.8371803, 0.4885314, 
  -0.3849685, 0.2856941, -0.050711174, -0.3394077, -0.34951052, -0.7332811, -0.109791376, -0.5954946, -0.74658054, -0.7753086, -0.53611, -0.06645146, -1.0256872, 0.23108782, 0.0817426, 0.24963073, 0.36339986, -0.80199754, 0.076719046, -0.1915298, 0.2420673, -0.98749876, 0.59599096, -0.39304674, 0.7964061, 0.6886929, 0.40865123, -0.6129837, 0.30960804, -0.79760617, 0.5251934, -0.8016762, 
  0.48992065, 0.49213824, -0.20759925, -0.8392876, 0.4353483, -0.005181496, -0.8622473, 0.3265226, 0.38958707, 0.51421386, 0.18919967, -1.0122088, 0.11665173, -0.6624376, 0.24897039, 0.78022903, 0.4778508, -0.086186245, -0.6437672, -0.31170425, -0.12734573, -0.52558666, -0.6825529, 0.74097407, -0.102637805, -0.3199665, -0.7811951, -0.07767029, -0.93081266, -0.6607881, 0.10067116, 0.52994436, 
  0.16381747, -0.84284246, -0.73634714, 0.12880315, -0.12422521, -0.3122962, 0.060250204, -0.26698083, -0.6405735, 0.32602015, 0.5868407, 0.009784374, 0.04420525, 0.54677355, -0.97410905, -0.24870092, -0.06645633, 0.18190241, -0.37618902, -0.5146087, -0.52744466, 0.63016266, 0.256278, -0.50337356, -0.69518363, -0.3091791, 0.6202841, -0.29389334, 0.38434768, 0.20716193, -0.6786963, -0.43253046, 
};

NeuralNetwork NN(layers,weights, NumberOf(layers), activation_func);

void nn(float inputs[FLAT_OUTPUT_SIZE],float outputs[NN_OUTPUT_SIZE]){
  float* output_nn = NN.FeedForward(inputs);
  for(int i=0;i<NN_OUTPUT_SIZE;i++){
    outputs[i] = output_nn[i];
  }
}